tree
version=v4
num_class=1
num_tree_per_iteration=1
label_index=0
max_feature_idx=43
objective=regression
feature_names=p_raw p_ewm_03 p_roll3 p_roll5 p_roll15 roll3_mean roll5_mean roll15_mean roll30_mean roll5_std roll15_std roll15_min roll15_max roll15_range roll15_q10 roll15_q90 roll15_iqr roll15_skew roll15_kurt base15 base30 p_minus_base15 p_minus_base30 p_highpass fft60_energy fft60_domfreq fft60_lowhigh hour dow is_weekend hour_sin hour_cos power_lag1 power_lag2 power_lag3 power_lag5 power_lag10 power_lag15 power_lag30 power_lag45 power_lag60 power_lag90 power_lag120 power_lag180
feature_infos=[71:7725] [117.0136691206659:6366.8089894398618] [78:6994] [78:6523.6000000000004] [117:5848.5333333333338] [78:6994] [78:6523.6000000000004] [117:5848.5333333333338] [115.90000000000001:4250] [0:3347.3368070751317] [0:2939.2865914480894] [71:3786] [117:9550] [0:8569] [78:4227.4000000000005] [114:7714.1999999999998] [0:6663.6000000000004] [-3.8729837789586812:3.8729836916910627] [-3:15.002297966751076] [117:5848.5333333333338] [115.90000000000001:4250] [-4711.8666666666668:6077.5333333333328] [-3483.6666666666665:6493.0666666666666] [-2699.7665634562713:6534.967119579539] [7351.4275696628056:540328.09067498927] [1:30] [0.90290113296877372:19053236773244.504] [0:23] [0:6] [0:1] [-1:1] [-1:1] [78:8184] [78:8842] [78:8184] [78:8457] [78:8457] [71:9550] [71:9550] [78:8171] [111:8184] [71:8099] [111:8228] [78:8177]
tree_sizes=5822 5909 5931 5905 5903 5877 5822 5848 5880 5816 5838 5844 5813 5823 5844 5866 5854 5875 5866 5842 5848 5834 5829 5812 5786 5782 5789 5797 5797 5706 5812 5778 5717 5738 5826 5672 5752 5746 5744 5675 5763 5654 5834 5674 5682 5761 5725 5770 5718 5677 5664 5746 5688 5656 5689 5721 5765 5726 5763 5632 5679 5771 5712 5722 5666 5788 5650 5799 5847 5633 5718 5628 5749 5758 5692 5621 5745 5613 5641 5648 5648 5617 5688 5667 5661 5753 5586 5754 5667 5677 5626 5569 5726 5770 5579 5661 5730 5841 5758 5627

Tree=0
num_leaves=64
num_cat=0
split_feature=9 16 21 32 12 34 9 16 24 3 3 16 14 32 23 9 13 26 26 9 0 21 32 21 13 30 10 13 16 13 33 33 16 21 33 8 43 24 12 16 9 13 24 16 13 38 37 32 32 26 0 39 9 37 10 32 13 16 26 33 32 11 0
split_gain=2.47566e+07 3.53913e+07 1.11509e+07 1.05356e+07 4.98046e+06 2.75687e+06 2.73488e+06 2.48845e+06 5.01427e+06 2.7498e+06 1.79879e+06 1.5732e+06 1.44906e+06 1.44053e+06 1.43221e+06 1.22421e+06 1.23632e+06 1.16624e+06 1.15117e+06 3.76133e+06 5.55125e+06 3.29149e+06 1.30651e+06 1.07337e+06 1.12517e+06 1.02445e+06 935335 926311 894736 1.3788e+06 887479 827326 815465 977945 800694 761357 716354 686953 677264 675072 596152 585426 623742 2.52031e+06 1.55922e+06 885627 639546 568492 540111 539702 1.14403e+06 514928 513270 843218 479984 478161 469971 525339 447285 427298 412573 896321 390587
threshold=12.969194269138169 45.900000000000041 46.800000000000011 186.50000000000003 346.50000000000006 188.50000000000003 21.01903898867587 141.60000000000022 33202.080235516209 340.7000000000001 583.10000000000014 23.099999999999969 301.10000000000008 143.50000000000003 0.48994392473028375 1.0000000180025095e-35 309.50000000000006 35.653587961181863 6.6970043257905942 87.206651122459405 236.50000000000003 -20.766666666666648 196.50000000000003 -1.0000000180025095e-35 61.500000000000007 -0.60355339059327362 136.96370738787041 145.50000000000003 153.09999999999999 253.50000000000003 318.50000000000006 271.50000000000006 123.10000000000001 27.466666666666686 196.50000000000003 374.41666666666669 427.50000000000006 26644.373019613657 186.50000000000003 200.40000000000001 1.0000000180025095e-35 20.500000000000004 61308.920753762191 195.10000000000002 253.50000000000003 332.50000000000006 609.50000000000011 153.50000000000003 182.50000000000003 1541967576353.7507 299.50000000000006 140.50000000000003 1.0000000180025095e-35 243.50000000000003 30.932645724635744 318.50000000000006 45.500000000000007 28.099999999999969 13.745873392037007 173.50000000000003 229.50000000000003 184.50000000000003 271.50000000000006
decision_type=2 2 2 2 2 2 2 2 2 2 2 2 2 2 2 2 2 2 2 2 2 2 2 2 2 2 2 2 2 2 2 2 2 2 2 2 2 2 2 2 2 2 2 2 2 2 2 2 2 2 2 2 2 2 2 2 2 2 2 2 2 2 2
left_child=2 3 4 38 23 15 11 -4 9 -9 14 -5 25 -3 40 16 -6 32 30 21 35 22 34 -1 49 -11 -10 56 -22 39 48 59 -16 -34 -20 -21 -12 -35 47 -30 41 -7 43 -43 45 -45 -47 -2 -15 -25 -51 -27 53 -26 -55 -32 57 -8 -53 -23 61 -58 -61
right_child=1 13 7 6 5 10 27 8 26 12 36 -13 -14 18 17 -17 -18 -19 19 20 28 31 -24 24 52 51 -28 -29 29 -31 55 -33 33 37 -36 -37 -38 -39 -40 -41 -42 42 -44 44 -46 46 -48 -49 -50 50 -52 58 -54 54 -56 -57 60 -59 -60 62 -62 -63 -64
leaf_value=89.093145426006174 86.613104058898912 86.957410598940228 89.988319378611138 88.230860809840607 92.350403672288166 89.247467207730068 87.887147469934277 89.630939990399483 90.72650466778579 91.872173540981464 89.479389872587348 89.355723436218156 89.977421345563386 87.594336565538541 89.44535000677277 88.898827172642029 88.936077868110615 90.092695646256857 89.04852767714813 93.252602579832555 88.773343839284678 88.274988634000863 88.728623276215558 89.189299639939392 89.562663617562379 89.315892019669761 89.578314863588517 88.549281138126446 90.090247393437579 89.496973439149386 88.765512165391968 89.701173961007939 89.712877531729333 93.168657487214119 86.479651778151791 89.729221933795387 90.014964620267648 90.576322136290074 86.478580975736591 92.439795698368414 89.086506479676615 89.572210534948212 89.402099020519884 94.610520617051165 89.946585746389346 90.284684051012164 94.301422936360012 87.947555760453668 88.881024822123024 89.651862993509042 89.010806386969335 94.261588007302606 89.18492765711143 89.698599530857621 91.368545233998347 89.223994245806225 87.851517326375742 89.427163946871445 91.015291628523968 89.388338195526572 87.933296436493762 86.841509859463542 88.665645778759057
leaf_weight=84762 1552 714 11411 6075 1647 29038 1287 714 4300 799 8234 6365 344 847 27656 446 316 13803 416 1563 1833 1123 11418 110850 32092 58 3019 5594 518 2889 6176 18948 2859 383 1120 170 25827 768 11783 746 15791 14387 31073 445 759 328 142 1643 21999 19813 10728 2017 8409 731 1046 71798 7279 972 112 13131 20424 3146 2180
leaf_count=84762 1552 714 11411 6075 1647 29038 1287 714 4300 799 8234 6365 344 847 27656 446 316 13803 416 1563 1833 1123 11418 110850 32092 58 3019 5594 518 2889 6176 18948 2859 383 1120 170 25827 768 11783 746 15791 14387 31073 445 759 328 142 1643 21999 19813 10728 2017 8409 731 1046 71798 7279 972 112 13131 20424 3146 2180
internal_value=89.223 88.7908 89.4309 87.8199 89.3754 89.5838 88.1615 90.5099 91.0336 92.4466 89.5602 88.8064 93.0504 89.1982 89.4796 91.2635 91.8008 89.7092 89.2084 89.39 90.4149 89.2263 88.5445 89.2403 89.3082 93.4044 90.2529 87.9542 89.6935 90.0996 89.1074 89.476 89.542 90.2083 87.1754 92.907 89.8855 91.4389 86.6537 91.4769 89.3661 89.4241 89.5329 89.7859 91.6221 93.0119 91.4983 87.2993 88.8333 89.2406 89.4267 93.9642 89.5346 89.6214 90.6816 89.1877 87.8536 88.5498 94.0908 89.2164 87.8027 87.5467 89.2854
internal_weight=688816 223709 465107 66120 442333 173902 51142 22774 11363 4044 171493 12440 3330 157589 137432 2409 1963 45469 156875 56055 7719 48336 12954 268431 183669 2986 7319 38702 5986 4153 100820 35382 31666 4010 1536 1733 34061 1151 14978 1264 91963 76172 47134 16061 1674 915 470 3195 22846 141391 30541 2187 42278 33869 1777 77974 33108 2259 2129 16434 30849 10425 15311
internal_count=688816 223709 465107 66120 442333 173902 51142 22774 11363 4044 171493 12440 3330 157589 137432 2409 1963 45469 156875 56055 7719 48336 12954 268431 183669 2986 7319 38702 5986 4153 100820 35382 31666 4010 1536 1733 34061 1151 14978 1264 91963 76172 47134 16061 1674 915 470 3195 22846 141391 30541 2187 42278 33869 1777 77974 33108 2259 2129 16434 30849 10425 15311
is_linear=0
shrinkage=1


Tree=1
num_leaves=64
num_cat=0
split_feature=18 9 13 32 33 20 10 9 14 21 22 23 15 9 10 2 15 35 17 21 37 43 16 12 12 9 3 9 33 12 21 9 18 9 2 36 14 18 21 10 1 40 21 20 36 20 37 42 9 32 33 24 16 30 11 13 24 27 10 21 13 21 21
split_gain=2.92906e+07 2.85914e+07 1.28453e+07 5.92588e+06 5.25458e+06 1.16218e+07 3.2225e+06 2.81771e+06 2.76184e+06 2.19095e+06 1.88411e+06 1.79079e+06 1.4084e+06 1.28431e+06 3.33827e+06 2.11333e+06 1.42025e+06 1.22315e+06 1.18966e+06 1.17171e+06 1.14832e+06 1.07143e+06 1.16768e+06 838643 828342 709356 672381 1.02912e+06 661044 605612 587880 920544 571765 894179 739222 900593 555883 550371 1.4812e+06 528948 502314 501517 473660 673796 510649 1.93038e+06 1.072e+06 462050 459915 455226 452204 1.10287e+06 448496 446281 444441 432251 419712 417599 395271 375575 375528 1.43667e+06 549201
threshold=4.3491124243246757 11.627553483723124 148.50000000000003 186.50000000000003 341.50000000000006 294.58333333333343 165.01464581450367 4.0249223595759878 286.10000000000008 -117.03333333333332 2.100000000000009 126.09083184593537 630.89999999999998 1.0000000180025095e-35 35.636792118552307 188.16666666666671 343.10000000000008 394.50000000000006 3.8729833462063135 76.566666666666706 285.50000000000006 401.50000000000006 129.09999999999999 419.50000000000006 462.50000000000006 1.0000000180025095e-35 277.50000000000006 87.206651122459405 201.50000000000003 186.50000000000003 -139.5333333333333 5.3665631487823369 0.90049686290062547 33.958798565531019 188.16666666666671 303.50000000000006 277.10000000000008 4.3491124260425034 -42.20000000000001 165.01464581450367 272.75485867193521 397.50000000000006 25.633333333333329 247.08333333333334 410.50000000000006 355.18333333333339 410.50000000000006 141.50000000000003 1.0000000180025095e-35 153.50000000000003 441.50000000000006 47416.048503231686 189.89999999999998 -0.60355339059327362 581.50000000000011 234.50000000000003 26644.373019613657 18.500000000000004 51.857313391876779 43.600000000000016 309.50000000000006 -132.0333333333333 36.966666666666676
decision_type=2 2 2 2 2 2 2 2 2 2 2 2 2 2 2 2 2 2 2 2 2 2 2 2 2 2 2 2 2 2 2 2 2 2 2 2 2 2 2 2 2 2 2 2 2 2 2 2 2 2 2 2 2 2 2 2 2 2 2 2 2 2 2
left_child=4 23 3 29 13 7 8 11 17 -9 12 52 -10 14 -1 16 -16 25 37 -11 32 22 -12 48 36 59 27 -22 -4 49 -19 55 33 -15 35 -35 47 38 -5 -18 -39 -23 44 -44 -17 46 -46 -13 58 -3 51 -14 -6 -49 -8 -32 -21 -43 -2 -7 61 -36 -63
right_child=1 2 28 18 5 6 54 9 10 19 21 24 50 20 15 42 39 30 -20 56 26 41 -24 -25 -26 -27 -28 -29 -30 -31 31 -33 -34 34 60 -37 -38 40 -40 -41 -42 57 43 -45 45 -47 -48 53 -50 -51 -52 -53 -54 -55 -56 -57 -58 -59 -60 -61 -62 62 -64
leaf_value=0.032733677696333889 0.037177313111357031 -2.479882516578197 -1.3686598105707213 -2.3253770997543617 1.7850546783337415 1.236418333115892 -0.067912955776458644 4.0605334759626803 0.053818311309095479 0.001778647647277678 0.18809720692959575 0.73179100049075796 5.7846777880022717 -0.033167430012825551 -0.13630053594555538 0.14728914564705853 3.0905902629599296 4.7606923677140118 -2.132551992705185 2.3553819987425988 -0.86066873213197881 0.29000200336724974 0.96929157887525885 0.29204358255266094 0.73106326965877677 0.45954442907678117 -0.21597767639985604 2.0274478849545821 -0.27541153245232092 -2.655849109816991 3.7128313280884302 0.64906103526054559 -0.30757841285807291 -0.31669699105927174 5.0086728096008306 3.0629233456489091 0.28248114730428225 -1.3084208618259598 -1.1839102231331975 -0.2944039358317852 -0.81867187135210728 0.91207608747121227 0.55225463208024816 1.5560196673876865 1.0865469462471673 0.25115490769883536 4.7067064634155278 3.2059959620339065 -0.29638039386263981 -1.2639489309086154 0.51448369906591818 0.56187693265472816 3.7921097976039855 5.3647442723484247 0.28787946965319733 1.2489992386324269 0.76005797839383948 0.55622455367411827 2.1775933775072276 3.0050685880642387 -0.22917812319798295 -0.24441631893747964 0.62332604982961259
leaf_weight=181059 35842 1543 1464 3923 1577 751 51301 635 50136 1867 25407 67 141 41506 536 12731 1504 264 4362 1162 7885 5823 5893 30440 149 2262 21585 321 24904 12548 765 591 11566 306 172 554 71 12131 10314 125 9211 23962 10773 1979 395 3330 424 293 13046 1536 19162 357 338 1309 10589 232 639 12569 217 500 2315 2464 7014
leaf_count=181059 35842 1543 1464 3923 1577 751 51301 635 50136 1867 25407 67 141 41506 536 12731 1504 264 4362 1162 7885 5823 5893 30440 149 2262 21585 321 24904 12548 765 591 11566 306 172 554 71 12131 10314 125 9211 23962 10773 1979 395 3330 424 293 13046 1536 19162 357 338 1309 10589 232 639 12569 217 500 2315 2464 7014
internal_value=-0.000191176 -0.589398 -1.24493 -1.67618 0.180229 0.367646 0.29617 2.22536 0.42227 1.34892 0.380614 3.21677 0.194467 0.0473169 0.115713 0.588216 2.09625 1.53608 -1.35321 0.879485 -0.104829 0.557011 0.335176 0.0858417 4.30906 0.987923 -0.36244 -0.747692 -0.336111 -2.50166 2.57586 2.21264 0.0116327 0.0795865 0.444496 1.86041 4.61546 -1.25767 -1.49844 2.83085 -1.09705 0.720948 0.478034 0.70803 0.304284 0.786015 2.96072 4.79978 -0.0419821 -1.8733 0.553142 2.04062 2.1393 4.96992 -0.00703905 3.1395 1.78936 0.78964 0.0500582 1.94331 0.342726 0.479923 0.397739
internal_weight=688837 161481 81936 55568 527356 218812 210705 8107 148815 4303 143450 3804 69796 308544 212856 31797 2165 5365 39941 3668 95688 73654 31300 79545 1889 3513 29791 8206 26368 15627 1852 1588 65897 54331 12825 860 1740 35579 14237 1629 21342 42354 29632 12752 16880 4149 819 1669 49105 3079 19660 498 1915 1602 61890 997 1801 36531 36059 1251 11965 9650 9478
internal_count=688837 161481 81936 55568 527356 218812 210705 8107 148815 4303 143450 3804 69796 308544 212856 31797 2165 5365 39941 3668 95688 73654 31300 79545 1889 3513 29791 8206 26368 15627 1852 1588 65897 54331 12825 860 1740 35579 14237 1629 21342 42354 29632 12752 16880 4149 819 1669 49105 3079 19660 498 1915 1602 61890 997 1801 36531 36059 1251 11965 9650 9478
is_linear=0
shrinkage=0.05


Tree=2
num_leaves=64
num_cat=0
split_feature=18 32 21 21 13 32 8 10 13 21 26 16 18 14 40 12 18 21 16 12 38 21 22 16 15 37 34 0 34 0 26 10 16 22 26 26 26 0 30 8 42 34 32 13 41 21 16 0 12 43 13 12 26 18 38 14 22 18 23 11 11 13 12
split_gain=2.65066e+07 1.75091e+07 5.7151e+06 5.64264e+06 7.54439e+06 4.70461e+06 9.32937e+06 2.97895e+06 2.97584e+06 2.40596e+06 2.25163e+06 2.07245e+06 2.05287e+06 1.61132e+06 1.51425e+06 1.35144e+06 1.1209e+06 1.06309e+06 1.67051e+06 8.19764e+06 2.4345e+06 1.29247e+06 1.24803e+06 1.02283e+06 1.00093e+06 914686 758269 743653 740310 726326 715245 858784 706860 684358 955345 676726 676352 1.02914e+06 624402 622006 596853 545108 526660 461732 427839 415686 418488 406977 406930 406603 601713 582919 481568 406074 401310 400918 390764 379945 367545 358884 356539 345560 343649
threshold=4.3491124243246757 178.50000000000003 33.600000000000016 -23.533333333333314 188.50000000000003 341.50000000000006 288.15000000000003 46.19575325899838 462.50000000000006 16.200000000000021 6.6970043257905942 139.09999999999999 4.3491124260425034 301.10000000000008 218.50000000000003 179.50000000000003 14.999999999843965 11.766666666666653 170.49999999999997 511.50000000000006 343.50000000000006 -23.533333333333314 -30.616666666666671 62.099999999999916 594.10000000000014 343.50000000000006 534.50000000000011 341.50000000000006 452.50000000000006 226.50000000000003 8.6171872909260134 72.868309117872784 214.09999999999999 1.0000000180025095e-35 37.297240226161655 34.172909373388151 1541967576353.7507 299.50000000000006 -0.91597561503675329 337.01666666666671 141.50000000000003 357.50000000000006 133.50000000000003 229.50000000000003 412.50000000000006 16.799999999999986 50.999999999999993 223.50000000000003 441.50000000000006 532.50000000000011 210.50000000000003 684.50000000000011 12.334572031974089 0.8974362208882628 343.50000000000006 237.10000000000005 -8.4833333333333467 0.8974362208882628 34.999384568602103 178.50000000000003 581.50000000000011 21.500000000000004 312.50000000000006
decision_type=2 2 2 2 2 2 2 2 2 2 2 2 2 2 2 2 2 2 2 2 2 2 2 2 2 2 2 2 2 2 2 2 2 2 2 2 2 2 2 2 2 2 2 2 2 2 2 2 2 2 2 2 2 2 2 2 2 2 2 2 2 2 2
left_child=5 15 3 4 12 17 10 16 9 24 -7 -12 56 30 38 42 -4 18 21 20 22 53 32 -19 29 61 35 54 45 -8 -11 55 39 -31 -35 -15 -23 -38 -13 -20 -40 -16 -2 44 -33 -5 -47 -14 -42 50 -26 52 -52 -1 -25 -32 -3 -28 -56 -34 -10 -17 -55
right_child=1 2 7 28 -6 6 8 -9 60 13 11 14 47 26 41 25 -18 23 19 -21 -22 36 -24 27 49 -27 57 -29 -30 33 31 43 59 34 -36 -37 37 -39 40 -41 48 -43 -44 -45 -46 46 -48 -49 -50 -51 51 -53 -54 62 58 -57 -58 -59 -60 -61 -62 -63 -64
leaf_value=-0.31836062340031501 -2.2404641870336612 -2.1871710122245358 -1.1868249332983469 -0.010219244213073051 -0.03645577579236494 0.51915687107514596 3.5214817501932938 -0.34770108470176497 -0.059666830787698556 0.916359145760824 1.0583548145235351 1.2589573368632367 -1.2385561340297484 0.2427531668485437 0.88043201242580071 -0.46346671754796792 -2.0914947037982223 0.017099788854114274 2.503580681121651 -0.18252452567655358 0.29013853206260526 -0.069604010961703086 0.072377761569429919 0.32909414076277266 0.073339721200770924 0.53451599598280575 0.8722894717785844 -0.5564219051299738 0.34608188873460882 0.0039033607200688459 4.2668127948867864 4.5318309708034503 2.4730364401905525 0.12756721387136091 0.78602592059826881 0.90239763755672309 0.40520715907704885 -0.20322500229149548 0.11923102038570597 0.14289943146593279 4.7202761134077473 2.739787684279301 -0.65768394667326591 1.5129600484049581 1.4774908284273969 -0.96858962581594976 0.62942201724451596 -0.7405622329585968 1.2561420759207078 0.62265197213098622 1.3112604617167924 0.4709551079706053 4.1151725459806991 -1.664999508765882 0.64956376332354893 1.2536221647809904 -0.48745944370673899 0.17480207738894038 1.9905726630547986 4.0719149734542235 0.26009616390024831 -2.401821952675852 -0.59667760076720444
leaf_weight=21105 718 5821 12840 52531 23664 1687 159 10039 50691 3940 1554 175 9420 18695 572 234 4669 50685 2444 18254 1786 126648 496 45849 10023 277 18071 2253 15938 38023 116 534 519 17089 8129 4909 19876 10687 79 315 1786 1268 1961 297 146 2100 509 7268 89 20530 633 2598 202 1013 3655 2284 359 2189 594 1084 10528 13221 2930
leaf_count=21105 718 5821 12840 52531 23664 1687 159 10039 50691 3940 1554 175 9420 18695 572 234 4669 50685 2444 18254 1786 126648 496 45849 10023 277 18071 2253 15938 38023 116 534 519 17089 8129 4909 19876 10687 79 315 1786 1268 1961 297 146 2100 509 7268 89 20530 633 2598 202 1013 3655 2284 359 2189 594 1084 10528 13221 2930
internal_value=-0.000833683 -0.56113 -0.386117 -0.234278 -0.662314 0.170882 0.349464 -1.03436 0.288686 0.40957 2.11791 2.60624 -1.30996 0.687123 3.2123 -2.10915 -1.42807 0.0459543 -0.0193263 0.364829 1.86865 -0.0718049 2.44898 0.177203 0.263702 -2.30956 0.572541 0.332211 0.0459406 0.14634 1.37402 1.90799 2.71922 0.137854 0.339821 0.379942 -0.0186576 0.192456 4.12022 2.23406 4.37647 2.16177 -1.08189 3.15769 3.87605 -0.0408141 -0.656827 -1.02167 4.55585 0.482639 0.269019 0.840325 1.98957 -0.405378 0.372174 1.39926 -2.08843 0.796929 0.837034 3.55425 -0.00467631 -2.36811 -0.871141
internal_weight=688758 161569 145158 117610 46532 527189 216996 27548 209786 148567 7210 5523 22868 51181 3969 16411 17509 310193 207157 24898 6644 182259 4858 103036 97386 13732 43864 52351 71078 63400 7317 3377 4362 63241 25218 23604 157211 30563 2129 2759 1954 1840 2679 977 680 55140 2609 16688 1875 33986 13456 3433 835 25048 50098 2400 6180 20260 4249 1603 61219 13455 3943
internal_count=688758 161569 145158 117610 46532 527189 216996 27548 209786 148567 7210 5523 22868 51181 3969 16411 17509 310193 207157 24898 6644 182259 4858 103036 97386 13732 43864 52351 71078 63400 7317 3377 4362 63241 25218 23604 157211 30563 2129 2759 1954 1840 2679 977 680 55140 2609 16688 1875 33986 13456 3433 835 25048 50098 2400 6180 20260 4249 1603 61219 13455 3943
is_linear=0
shrinkage=0.05


Tree=3
num_leaves=64
num_cat=0
split_feature=18 32 21 21 10 33 8 10 10 10 10 18 24 22 24 26 12 18 14 0 26 16 14 36 12 10 37 0 0 14 21 42 30 34 21 17 41 33 26 0 36 0 32 0 22 16 41 0 21 2 16 24 16 0 38 21 0 15 22 26 37 0 34
split_gain=2.4155e+07 1.57901e+07 5.30197e+06 5.06552e+06 6.73508e+06 4.25785e+06 9.41188e+06 2.68554e+06 2.61194e+06 2.32779e+06 2.0871e+06 1.84285e+06 1.69796e+06 1.66891e+06 1.61997e+06 1.20726e+06 1.19044e+06 1.06426e+06 1.03944e+06 1.02827e+06 965299 937247 1.66183e+06 1.91309e+06 2.25353e+06 875606 820308 759574 715039 709045 674981 661530 726594 651966 632359 607030 591456 546148 534106 931259 531843 513326 471596 450038 439806 434040 427773 411968 634747 726781 516805 1.5939e+06 792766 603398 407620 390896 388313 387077 375371 367772 426209 346116 343301
threshold=4.3491124243246757 178.50000000000003 30.133333333333386 -22.166666666666654 50.746803793732504 341.50000000000006 292.25000000000006 46.19575325899838 165.01464581450367 68.457494634119442 62.639634474247664 4.3491124260543135 27730.585898571338 1.0000000180025095e-35 42169.657129641004 31.45709551364207 179.50000000000003 14.999999999953351 298.50000000000006 633.50000000000011 12.825697421722028 62.099999999999916 208.10000000000005 343.50000000000006 497.50000000000006 80.627715901552065 343.50000000000006 208.50000000000003 341.50000000000006 292.50000000000006 7.7999999999999838 141.50000000000003 -0.91597561503675329 440.50000000000006 -45.233333333333341 -0.1424545574482359 139.50000000000003 542.50000000000011 1541967576353.7507 299.50000000000006 612.50000000000011 441.50000000000006 133.50000000000003 341.50000000000006 -11.583333333333355 236.10000000000002 208.50000000000003 344.50000000000006 27.466666666666686 315.16666666666669 162.09999999999999 32424.232608876271 200.40000000000001 266.50000000000006 624.50000000000011 20.700000000000006 206.50000000000003 352.10000000000008 30.149999999999981 20.688188307040303 252.50000000000003 334.50000000000006 371.50000000000006
decision_type=2 2 2 2 2 2 2 2 2 2 2 2 2 2 2 2 2 2 2 2 2 2 2 2 2 2 2 2 2 2 2 2 2 2 2 2 2 2 2 2 2 2 2 2 2 2 2 2 2 2 2 2 2 2 2 2 2 2 2 2 2 2 2
left_child=5 16 3 4 11 21 10 17 9 13 28 44 20 19 18 29 42 -4 35 61 31 34 23 30 25 -25 -18 -24 -7 55 -23 -12 -33 -5 -1 45 -34 -31 -36 -40 -20 -42 -2 -10 -3 -11 -38 48 50 -50 -29 52 -52 -54 -16 -15 -13 -30 -32 60 -51 -8 -48
right_child=1 2 7 33 -6 6 8 -9 43 14 12 56 -14 15 54 -17 26 -19 40 -21 -22 22 27 24 -26 -27 -28 47 57 37 58 32 36 -35 38 -37 46 -39 39 -41 41 -43 -44 -45 -46 -47 62 -49 49 59 51 -53 53 -55 -56 -57 -58 -59 -60 -61 -62 -63 -64
leaf_value=-1.1009773063140398 -2.127097280172634 -2.0930318536385779 -1.1208087845307821 -0.035207641961869429 -0.032453612635293866 -0.68068638257382974 -0.6631800095172774 -0.33346139081016668 -0.42369103122956181 3.9695838867601609 0.1819171645545534 -1.2023926895088666 0.95019455561773425 -0.090747214565362042 0.83433754811900718 0.78052709731517012 -2.2463728453733389 -1.9934521373976293 0.95250749341967289 0.56803793225028254 0.49418740134227318 -0.15998016708802265 -1.4746122620374322 -0.18772199135065581 -0.16089088174493577 2.4449678308041807 0.47361580960900124 -0.2067848627447294 2.598846705712623 0.14860962239239855 0.73639641727504801 1.3237653668636735 -0.52247678747489334 0.32310691386656964 -0.043640856336844495 1.5689630234255083 4.202402280955762 0.51249165902100435 0.38546198037215712 -0.19306189746427332 5.4980057999491692 1.303343234490032 -0.62934643163193504 0.040307470129480216 -0.55759428578729586 0.99048116502041617 2.1987855490929675 -0.46499327979584237 0.18594031506100012 0.53337147532169271 0.45264233776110896 0.036750072215601053 4.2805759677374864 0.51703029558010083 0.30084870602355024 1.5328938782171244 -0.72297475324343452 0.84033823842917388 0.29048247721148179 3.8588051379270798 2.278718283056568 0.045771722664452265 3.7858385616877914
leaf_weight=1337 721 5692 13354 52787 23885 630 1785 10167 5757 810 168 8333 1271 468 9354 21902 13510 4732 2917 10343 345 7697 909 358 1649 2681 283 21647 426 27414 5463 383 84 16715 175601 685 1946 16529 19860 10706 132 163 1939 56640 508 144 636 4602 5564 983 409 12950 426 142 5801 1783 8565 1179 34679 137 543 48460 734
leaf_count=1337 721 5692 13354 52787 23885 630 1785 10167 5757 810 168 8333 1271 468 9354 21902 13510 4732 2917 10343 345 7697 909 358 1649 2681 283 21647 426 27414 5463 383 84 16715 175601 685 1946 16529 19860 10706 132 163 1939 56640 508 144 636 4602 5564 983 409 12950 426 142 5801 1783 8565 1179 34679 137 543 48460 734
internal_value=-0.000369738 -0.536013 -0.369165 -0.220127 -0.621156 0.163393 0.332036 -0.983634 0.269003 0.38294 2.03743 -1.22992 2.55559 0.304935 0.884684 0.474782 -2.00379 -1.34913 1.67994 0.114041 3.03056 0.043675 0.168724 0.363387 1.32731 2.13483 -2.19057 -0.0429237 0.746772 0.329819 0.268927 3.25203 3.38837 0.0509658 -0.0170938 2.70453 3.62095 0.285483 -0.0100648 0.182829 1.15711 3.18028 -1.03532 -0.00250291 -1.96723 3.51991 3.72591 -0.0154696 0.0328635 0.460063 -0.0539238 0.183671 2.13109 3.33969 0.63013 1.19533 -0.959393 1.30708 0.351168 1.37721 1.15442 0.0205856 3.04908
internal_weight=688423 161191 144738 116485 46983 527232 218889 28253 211087 148690 7802 23098 5567 128684 20006 68096 16453 18086 4851 60588 4296 308343 100839 52527 4688 3039 13793 48312 2235 46194 47839 3951 3783 69502 207504 1639 3400 43943 206167 30566 3212 295 2660 62397 6200 954 3316 47403 42801 7227 35574 13927 977 568 15155 2251 16898 1605 40142 1663 1526 50245 1370
internal_count=688423 161191 144738 116485 46983 527232 218889 28253 211087 148690 7802 23098 5567 128684 20006 68096 16453 18086 4851 60588 4296 308343 100839 52527 4688 3039 13793 48312 2235 46194 47839 3951 3783 69502 207504 1639 3400 43943 206167 30566 3212 295 2660 62397 6200 954 3316 47403 42801 7227 35574 13927 977 568 15155 2251 16898 1605 40142 1663 1526 50245 1370
is_linear=0
shrinkage=0.05


Tree=4
num_leaves=64
num_cat=0
split_feature=18 9 13 32 33 20 9 13 21 14 21 23 9 9 16 12 21 38 0 37 21 37 43 23 17 37 35 22 33 9 3 9 13 20 14 12 26 32 30 26 33 18 9 12 0 37 2 36 42 9 18 36 42 16 0 22 13 21 32 32 16 13 27
split_gain=2.16494e+07 2.17635e+07 9.36122e+06 4.54691e+06 3.8843e+06 8.23407e+06 2.44646e+06 2.38493e+06 2.36492e+06 1.92098e+06 1.82753e+06 1.44305e+06 1.19205e+06 1.13583e+06 2.67298e+06 3.42119e+06 1.09634e+06 998501 979420 974072 896700 1.51746e+06 969347 972637 871024 833565 780476 766824 765764 752134 625562 682414 617192 613285 611562 591119 573085 545772 543104 500025 487764 471401 719132 458124 439109 814985 437267 851067 418069 416956 412528 409355 393653 389279 375179 365117 348758 337843 336238 331470 327387 317965 317931
threshold=4.3491124243246757 11.627553483723124 148.50000000000003 186.50000000000003 337.50000000000006 292.25000000000006 4.3931765372349165 382.50000000000006 20.700000000000006 299.10000000000008 -117.03333333333332 117.48181191321277 1.6431676815661573 1.0000000180025095e-35 170.49999999999997 511.50000000000006 38.399999999999999 343.50000000000006 337.50000000000006 289.50000000000006 -139.5333333333333 301.50000000000006 364.50000000000006 -1.0000000180025095e-35 3.8729833461854812 371.50000000000006 282.50000000000006 -137.33333333333331 518.50000000000011 1.0000000180025095e-35 277.50000000000006 87.206651122459405 262.50000000000006 238.18333333333337 277.10000000000008 346.50000000000006 4.7068814895022077 583.50000000000011 -0.37940952255126059 34.172909373388151 207.50000000000003 0.8974362208882628 32.107631454637307 186.50000000000003 276.50000000000006 299.50000000000006 188.16666666666671 340.50000000000006 141.50000000000003 21.01903898867587 1.2349000286135909 276.50000000000006 364.50000000000006 189.89999999999998 337.50000000000006 -51.716666666666676 57.500000000000007 6.5333333333333465 188.50000000000003 153.50000000000003 74.09999999999998 197.50000000000003 15.500000000000002
decision_type=2 2 2 2 2 2 2 2 2 2 2 2 2 2 2 2 2 2 2 2 2 2 2 2 2 2 2 2 2 2 2 2 2 2 2 2 2 2 2 2 2 2 2 2 2 2 2 2 2 2 2 2 2 2 2 2 2 2 2 2 2 2 2
left_child=4 29 3 43 13 6 11 8 20 12 -8 53 36 14 16 17 44 25 -12 41 21 -7 -22 37 49 55 -20 -23 39 35 31 -21 34 -18 48 -2 -10 -24 51 -11 -4 42 -15 59 56 -46 47 -44 -13 -5 62 -38 -25 -6 -9 -16 -1 -58 -48 -3 -40 -27 -30
right_child=1 2 40 24 5 7 10 54 9 28 18 32 -14 19 15 -17 33 -19 26 30 22 27 23 52 -26 61 -28 -29 50 -31 -32 -33 -34 -35 -36 -37 38 -39 60 -41 -42 -43 46 -45 45 -47 58 -49 -50 -51 -52 -53 -54 -55 -56 -57 57 -59 -60 -61 -62 -63 -64
leaf_value=-0.052963214447162704 0.029757211144785925 -2.13316738825602 -1.0950907215410952 -0.666417465339605 1.3688860478800815 4.5524509705553706 3.5358361194775152 -0.3850638887122928 1.3402765072494336 0.18611615335755366 -0.51347341937627899 0.59636148788310872 0.77408052678899941 -0.046205534142534047 2.2597995488333829 0.13910666026593019 0.38883916124995888 0.62138209202458894 2.0290555431543429 -0.82466482481559966 -0.021322483649647773 0.10465695808942646 0.080048696513912623 -0.014599104726752733 -1.8107375049628278 1.2030050068285114 0.23503414053732899 2.3739045521180366 1.0958674437527969 -0.17375054467040763 -0.20389418881618299 1.6032913882266795 0.64345359064732932 1.4133328174883246 0.35236922606177956 0.34858969200903195 3.4899216650302218 0.49682288338450314 1.347738106868291 0.85245940518352625 -0.24310266729008392 -0.27535335699969532 -0.16813084707126857 -2.2947413255274909 0.30494543290738946 -0.10192873864566435 -1.8881757200530598 2.7156621564734347 4.2692632990394044 -1.1480839582235687 0.032474876604661217 1.1412819450752556 0.62348237159652109 3.2962502852082256 0.038351635743467317 0.41406349520973801 -0.10263411267402561 0.23638125482390657 0.31779495620043741 -1.0981155005430134 3.9898868567980417 3.8211217538612647 0.66777400211640803
leaf_weight=103949 31659 1549 1803 5282 1445 298 631 5749 1107 14850 1251 81 2664 39572 1074 5080 9921 804 1323 7513 30623 1386 34800 2695 4555 129 1119 509 6942 20819 20090 301 158 1713 115 26881 270 10145 137 3474 24604 12587 483 12712 34783 19047 175 544 1781 30079 1785 593 23444 320 58145 357 10667 23624 13362 1545 813 1148 11558
leaf_count=103949 31659 1549 1803 5282 1445 298 631 5749 1107 14850 1251 81 2664 39572 1074 5080 9921 804 1323 7513 30623 1386 34800 2695 4555 129 1119 509 6942 20819 20090 301 158 1713 115 26881 270 10145 137 3474 24604 12587 483 12712 34783 19047 175 544 1781 30079 1785 593 23444 320 58145 357 10667 23624 13362 1545 813 1148 11558
internal_value=0.000389638 -0.506126 -1.0767 -1.44418 0.155561 0.315798 1.86808 0.255577 0.365735 0.672102 1.04908 2.77613 1.53892 0.0405949 0.104812 0.968684 0.0683747 2.16864 0.624178 -0.103476 0.235424 1.23575 0.213855 0.31517 -1.15996 2.62802 1.20698 0.71418 0.546735 0.0843661 -0.351539 -0.731138 3.65061 0.539686 3.89094 0.176162 2.2367 0.174123 2.78405 0.312446 -0.301274 0.000265881 0.0643493 -2.16194 0.0398265 0.160979 0.364739 1.35941 4.10949 -1.07614 0.758374 1.87608 0.557694 1.71832 0.000253914 1.79933 -0.00734954 0.130923 0.289277 -1.61631 3.60886 3.55664 0.828413
internal_weight=688622 161488 82129 55722 527134 220211 8224 211987 148093 44193 4324 3900 5584 306923 212296 8592 203704 3512 3693 94627 103900 2193 101707 71084 39916 2708 2442 1895 38609 79359 27904 7814 2135 11634 1977 58540 2920 44945 1813 18324 26407 66723 54136 15806 192070 53830 14564 1027 1862 35361 20285 863 26139 1765 63894 1431 138240 34291 13537 3094 950 1277 18500
internal_count=688622 161488 82129 55722 527134 220211 8224 211987 148093 44193 4324 3900 5584 306923 212296 8592 203704 3512 3693 94627 103900 2193 101707 71084 39916 2708 2442 1895 38609 79359 27904 7814 2135 11634 1977 58540 2920 44945 1813 18324 26407 66723 54136 15806 192070 53830 14564 1027 1862 35361 20285 863 26139 1765 63894 1431 138240 34291 13537 3094 950 1277 18500
is_linear=0
shrinkage=0.05


Tree=5
num_leaves=64
num_cat=0
split_feature=18 9 32 13 33 8 13 9 14 22 21 9 10 2 15 23 9 21 15 37 43 16 21 17 12 3 9 14 17 13 26 18 9 42 2 36 15 9 9 32 16 26 10 16 13 16 24 9 37 17 9 26 36 33 21 37 16 24 10 38 9 34 24
split_gain=1.94994e+07 1.93405e+07 8.5116e+06 4.30425e+06 3.54492e+06 8.18197e+06 2.14796e+06 2.06492e+06 2.0249e+06 1.53319e+06 1.4225e+06 1.03274e+06 2.59041e+06 1.33236e+06 1.15853e+06 1.01552e+06 959648 1.29761e+06 911066 885565 783594 909122 781083 735323 655476 570537 718163 561086 506392 488902 434422 425012 660197 404113 400634 457932 396312 389171 376245 375413 392755 410552 363397 337586 335019 652391 458487 329819 338037 731664 720129 322134 367292 429482 318711 659552 474490 1.42837e+06 784227 318729 315947 314973 668354
threshold=4.3491124243246757 11.256109452701745 196.50000000000003 192.50000000000003 341.50000000000006 288.15000000000003 462.50000000000006 4.0249223595759878 278.90000000000009 7.3833333333333266 -117.03333333333332 1.0000000180025095e-35 34.156502554903724 188.16666666666671 343.10000000000008 117.48181191321277 1.6431676931938328 -139.5333333333333 630.89999999999998 289.50000000000006 401.50000000000006 129.09999999999999 50.43333333333333 3.8729833462063135 409.50000000000006 275.30000000000001 87.206651122459405 277.10000000000008 -3.5873660991503198 262.50000000000006 7.8196352495969199 0.90049686290062547 32.107631454637307 141.50000000000003 178.16666666666671 340.50000000000006 468.10000000000008 21.01903898867587 14.501724036247374 341.50000000000006 203.19999999999993 11.561538669526287 51.857313391876779 189.89999999999998 246.50000000000003 206.39999999999998 38946.300955071572 1.0000000180025095e-35 575.50000000000011 -0.72017028273793204 87.206651122459405 31.45709551364207 294.50000000000006 551.50000000000011 19.600000000000012 243.50000000000003 162.09999999999999 33202.080235516209 91.068916821400009 298.50000000000006 1.0000000180025095e-35 274.50000000000006 17940.134057585597
decision_type=2 2 2 2 2 2 2 2 2 2 2 2 2 2 2 2 2 2 2 2 2 2 2 2 2 2 2 2 2 2 2 2 2 2 2 2 2 2 2 2 2 2 2 2 2 2 2 2 2 2 2 2 2 2 2 2 2 2 2 2 2 2 2
left_child=4 24 28 23 11 7 8 15 16 18 -9 12 61 14 -14 43 30 -18 39 31 21 -11 -12 37 42 26 -21 29 -3 33 -7 32 -13 -17 35 -34 -16 -4 -8 -10 -41 -42 -2 -6 45 -23 -47 -20 49 50 -49 52 -22 -54 56 59 -15 58 -58 -56 -26 -1 -63
right_child=1 2 3 -5 5 6 38 10 9 20 22 19 13 54 36 27 17 -19 47 25 51 44 -24 -25 60 -27 -28 -29 -30 -31 -32 -33 34 -35 -36 -37 -38 -39 -40 40 41 -43 -44 -45 -46 46 -48 48 -50 -51 -52 -53 53 -55 55 -57 57 -59 -60 -61 -62 62 -64
leaf_value=-0.019783077669079923 -0.045333257027555238 -1.0674645182775797 -0.58940762183468454 -0.20371597302227099 1.4501773524439061 1.3959787454946808 0.24516259122332396 3.4069261211311082 -0.78298554472694826 0.15286144314657663 -0.32716549502036024 -0.043998810007351043 -0.054298608537684104 0.013719903587822735 2.6103354544893596 0.44949596547766735 3.7115027239563272 0.36414243112157285 0.60790430030337728 -0.81053965367157943 2.2668228413619178 0.80002846973279862 1.313454644952134 -1.679562532241464 0.35334101387861799 -0.19830216256336569 1.6711781655487261 -0.16546492490402245 -2.0272664190339422 0.82411509126193772 2.841323719719437 -0.26918674471020426 -0.39842171255904851 4.1781043483011784 0.29184791354282824 2.4792938829999267 -0.12724907626365795 -1.0506330928946268 -0.064538691357822059 0.057671033634107895 0.75337835326727354 4.2045656483657288 1.9960739399404286 3.4001451494461365 0.26935783014962017 4.1399142307965731 1.5205858831384262 0.57339565550754146 0.048106150760373938 0.28100174418829971 5.1494597498689387 0.80481081653507958 0.24612864563607115 0.67787361127046619 0.41748445806543383 1.9849561098378992 0.63840292499626017 0.29545271929396394 3.7404462866987735 1.1516716896610102 -0.011609171594529889 0.34758093774100529 -0.020540668475647894
leaf_weight=126458 47865 1493 5381 23602 1117 985 12248 599 1312 23906 1101 40283 705 9190 1498 76 327 2526 12234 7097 295 3442 2127 4215 22941 21074 304 94 17277 129 1101 11878 202 1658 14049 438 145 30479 49201 53125 587 101 219 277 1782 258 474 169 6773 1181 175 15801 10135 13344 14583 775 342 6163 504 1645 7998 20584 30749
leaf_count=126458 47865 1493 5381 23602 1117 985 12248 599 1312 23906 1101 40283 705 9190 1498 76 327 2526 12234 7097 295 3442 2127 4215 22941 21074 304 94 17277 129 1101 11878 202 1658 14049 438 145 30479 49201 53125 587 101 219 277 1782 258 474 169 6773 1181 175 15801 10135 13344 14583 775 342 6163 504 1645 7998 20584 30749
internal_value=0.00129225 -0.479468 -1.0152 -0.739377 0.148504 0.302529 0.246181 1.96269 0.34816 0.31427 1.16913 0.0393913 0.100526 0.490156 1.64121 2.86897 1.34376 0.747804 0.158561 -0.0974305 0.483927 0.290565 0.753875 -1.05485 0.0794757 -0.330935 -0.708602 3.60359 -1.95092 3.79376 2.15884 0.00203166 0.0606348 4.01468 0.347581 1.57101 2.36873 -0.981424 -0.00280911 0.0526692 0.0730431 1.26002 -0.0360356 1.83765 0.843276 1.0883 2.44379 0.442862 0.199535 0.87208 2.90134 0.629832 0.513535 0.491506 0.408755 0.559961 0.250045 0.559908 2.48643 0.491908 0.258998 0.022618 0.127072
internal_weight=688796 161470 82447 63677 527326 218660 211482 7178 150033 145094 3827 308666 213341 35550 2348 3351 4939 2853 75657 95325 69437 29862 3228 40075 79023 28475 7401 1957 18770 1863 2086 66850 54972 1734 14689 640 1643 35860 61449 55125 53813 688 48084 1394 5956 4174 732 20532 8298 1525 344 39575 23774 23479 33202 17003 16199 7009 846 16228 30939 177791 51333
internal_count=688796 161470 82447 63677 527326 218660 211482 7178 150033 145094 3827 308666 213341 35550 2348 3351 4939 2853 75657 95325 69437 29862 3228 40075 79023 28475 7401 1957 18770 1863 2086 66850 54972 1734 14689 640 1643 35860 61449 55125 53813 688 48084 1394 5956 4174 732 20532 8298 1525 344 39575 23774 23479 33202 17003 16199 7009 846 16228 30939 177791 51333
is_linear=0
shrinkage=0.05


Tree=6
num_leaves=64
num_cat=0
split_feature=18 9 32 13 33 8 9 10 10 24 0 22 10 43 0 9 10 0 15 12 32 37 32 16 13 11 26 9 19 3 9 22 27 14 35 24 41 40 30 9 18 9 2 36 0 15 9 16 32 40 2 43 34 13 9 35 31 40 36 23 36 14 11
split_gain=1.77113e+07 1.75319e+07 7.81308e+06 3.59586e+06 3.2e+06 7.46131e+06 1.97309e+06 1.95066e+06 1.92842e+06 1.27779e+06 1.25103e+06 1.22678e+06 1.09581e+06 1.04899e+06 990556 932289 2.34816e+06 1.22352e+06 1.03916e+06 783834 780843 757443 732906 646902 1.27145e+06 625158 612632 610552 511747 507638 621054 489325 476404 459939 450677 399698 447117 395354 374881 371144 367343 594831 401493 439598 362486 352738 341394 329567 314109 313075 315430 295556 288224 287456 1.19372e+06 443061 284470 284003 397579 452235 283113 278414 274845
threshold=4.3491124243246757 10.954451150630616 206.50000000000003 201.50000000000003 341.50000000000006 292.25000000000006 1.6431676931938328 165.01464581450367 68.457494634119442 42169.657129641004 203.50000000000003 1.0000000180025095e-35 68.457494634119442 357.50000000000006 341.50000000000006 1.0000000180025095e-35 34.156502554903724 188.50000000000003 343.10000000000008 458.50000000000006 583.50000000000011 285.50000000000006 178.50000000000003 203.19999999999993 234.50000000000003 178.50000000000003 6.6970043257905942 1.0000000180025095e-35 289.63333333333338 282.30000000000001 87.206651122459405 -59.433333333333302 8.5000000000000018 237.10000000000005 404.50000000000006 22198.344146645522 287.50000000000006 304.50000000000006 -0.91597561503675329 3.3166247953849477 0.8974362208882628 32.107631454637307 180.16666666666671 340.50000000000006 341.50000000000006 558.10000000000014 22.360679775390498 218.80000000000007 194.50000000000003 218.50000000000003 348.16666666666669 424.50000000000006 597.50000000000011 309.50000000000006 93.020427864205075 266.50000000000006 -0.60355339059327384 406.50000000000006 288.50000000000006 -81.926680144337965 371.50000000000006 172.30000000000004 344.50000000000006
decision_type=2 2 2 2 2 2 2 2 2 2 2 2 2 2 2 2 2 2 2 2 2 2 2 2 2 2 2 2 2 2 2 2 2 2 2 2 2 2 2 2 2 2 2 2 2 2 2 2 2 2 2 2 2 2 2 2 2 2 2 2 2 2 2
left_child=4 27 22 46 15 6 12 8 11 19 -8 20 35 33 -12 16 -1 18 -18 37 -7 40 -3 52 47 -24 -14 34 -16 30 -23 62 -15 -13 -2 36 -6 -10 -28 -11 41 -17 43 -43 -9 61 -4 56 -42 -40 -51 -22 -21 54 55 -44 -25 -34 59 -59 -56 -20 -26
right_child=1 2 3 -5 5 7 10 44 9 39 14 13 26 32 28 21 17 -19 45 23 51 29 25 24 31 -27 38 -29 -30 -31 -32 -33 57 -35 -36 -37 -38 -39 49 -41 48 42 53 -45 -46 -47 -48 -49 -50 50 -52 -53 -54 -55 60 -57 -58 58 -60 -61 -62 -63 -64
leaf_value=0.02213355228958774 0.068967770266059311 -1.991975590720136 -0.6689438828656864 -0.17926304295020937 2.0494955854104968 -0.0057215641721850494 3.2323640710694237 -0.38346765624191936 3.6364237138649935 0.86766278393006013 -0.42622292500852255 4.2628361284732819 1.1829207193557572 0.78779317242967606 1.9981705979799629 -0.041339716484403273 -0.036418643213995322 0.38811210856097061 2.0033826992129167 0.26915646396675752 -0.061255549158536808 -0.69442924438433518 -0.97015977824046584 4.7959496274590494 1.6443278110027315 -1.8654808117535797 1.6300885215417396 -0.15995305646847258 0.62038321528216234 -0.16414335018409534 1.4868727022963288 0.52958670350219561 0.16745184145164874 0.11397394499327429 0.37292015975655196 0.80563873641910611 7.2003289693823236 1.3719018154621303 4.4159446649577907 0.36228331715896123 -1.0830169861302716 -0.33350184457420329 0.46588702544448779 2.4246242531324285 0.034646637258793522 -0.40112182515657557 -1.0469980852311025 4.6605879996997723 -0.16666086216379647 -0.43290497014078044 3.3824458357818941 0.51485921865348316 1.8073928540681508 -0.23610750811656059 0.78026629432024042 -0.27633974691845847 1.5974844562214994 6.4483154084036745 0.50369843860802099 0.84427965523054205 4.1849725772416404 3.465970580438213 5.8051222712221282
leaf_weight=177437 41308 14036 7429 22912 222 45997 605 5711 567 6012 1172 67 289 13861 1359 38988 718 33235 1106 1602 2721 8721 4175 96 90 3658 207 20217 1337 20728 339 1110 7497 22482 17304 776 52 292 1079 9180 1019 213 8527 449 56144 118 30439 345 11368 59 662 12242 376 2281 81 2631 252 60 24001 90 248 461 71
leaf_count=177437 41308 14036 7429 22912 222 45997 605 5711 567 6012 1172 67 289 13861 1359 38988 718 33235 1106 1602 2721 8721 4175 96 90 3658 207 20217 1337 20728 339 1110 7497 22482 17304 776 52 292 1079 9180 1019 213 8527 449 56144 118 30439 345 11368 59 662 12242 376 2281 81 2631 252 60 24001 90 248 461 71
internal_value=0.00169356 -0.456483 -0.965289 -0.673683 0.141989 0.288319 1.805 0.232079 0.330059 0.786987 1.11804 0.259252 2.72335 0.405171 0.78734 0.0383182 0.0965214 0.466889 1.55642 1.49804 0.0963428 -0.0914154 -1.77574 1.19981 1.8426 -1.38827 3.33525 0.0769788 1.3149 -0.300605 -0.612811 0.903221 0.543346 0.126301 0.158704 1.38532 3.02703 2.86664 3.64518 0.562279 0.0032787 0.060166 0.334422 1.53719 -0.00395737 2.23515 -0.972831 3.56548 -0.242044 3.87691 3.07023 0.410094 0.561561 0.276589 0.378397 0.290874 2.47982 0.436285 0.519736 3.08589 3.34673 2.43367 3.47921
internal_weight=688831 161478 82649 60780 527353 218685 7819 210866 149011 19993 4473 129018 3346 68058 3868 308668 213075 35638 2403 4801 60960 95593 21869 3942 1964 7833 2296 78829 2696 29788 9060 1271 45509 22549 58612 1050 274 859 2007 15192 65805 53418 14430 662 61855 1685 37868 693 12387 1800 721 14963 1978 13768 11487 11158 348 31648 24151 150 329 1567 161
internal_count=688831 161478 82649 60780 527353 218685 7819 210866 149011 19993 4473 129018 3346 68058 3868 308668 213075 35638 2403 4801 60960 95593 21869 3942 1964 7833 2296 78829 2696 29788 9060 1271 45509 22549 58612 1050 274 859 2007 15192 65805 53418 14430 662 61855 1685 37868 693 12387 1800 721 14963 1978 13768 11487 11158 348 31648 24151 150 329 1567 161
is_linear=0
shrinkage=0.05


Tree=7
num_leaves=64
num_cat=0
split_feature=18 9 13 32 21 9 16 24 36 0 3 36 26 0 13 2 13 9 18 32 35 17 22 30 36 32 9 35 22 26 13 40 12 16 22 13 17 18 21 9 12 38 3 9 9 0 14 41 34 0 36 17 22 13 13 8 36 42 26 15 31 26 38
split_gain=1.5869e+07 1.5794e+07 7.07898e+06 3.26339e+06 3.06018e+06 2.49535e+06 3.97216e+06 2.52295e+06 1.9675e+06 3.87051e+06 1.60693e+06 1.39265e+06 1.14365e+06 1.05917e+06 1.14141e+06 945802 913484 858183 818541 846584 933884 725595 640716 633693 614878 795149 563138 556009 685582 690479 530081 502102 432248 429425 775436 519250 421473 387921 1.072e+06 379094 377410 371691 368851 357922 957738 351771 359872 346663 344684 344382 616743 342175 331981 331304 475940 416265 326012 310370 307066 298795 295888 276438 372422
threshold=4.3491124243246757 12.049896267868421 145.50000000000003 186.50000000000003 28.833333333333346 2.2360679849018235 141.60000000000022 28784.1920872263 346.50000000000006 196.50000000000003 340.7000000000001 465.50000000000006 6.441901120747894 239.50000000000003 197.50000000000003 276.16666666666669 523.50000000000011 0.44721363730764563 0.89743589743663621 321.50000000000006 289.50000000000006 3.8729833462063135 -137.33333333333331 -0.91597561503675329 298.50000000000006 330.50000000000006 1.0000000180025095e-35 586.50000000000011 1.0000000180025095e-35 37.297240226161655 295.50000000000006 218.50000000000003 346.50000000000006 200.40000000000001 -131.54999999999998 253.50000000000003 1.0023029346874617 4.3491124260386966 -35.29999999999999 1.0000000180025095e-35 186.50000000000003 298.50000000000006 262.7000000000001 87.206651122459405 1.0000000180025095e-35 200.50000000000003 200.10000000000005 375.50000000000006 546.50000000000011 274.50000000000006 299.50000000000006 -0.12053740011210995 -61.666666666666664 204.50000000000003 234.50000000000003 497.88333333333338 188.50000000000003 416.50000000000006 39.100003105095752 548.30000000000007 -0.60355339059327384 4.6320621414438259 315.50000000000006
decision_type=2 2 2 2 2 2 2 2 2 2 2 2 2 2 2 2 2 2 2 2 2 2 2 2 2 2 2 2 2 2 2 2 2 2 2 2 2 2 2 2 2 2 2 2 2 2 2 2 2 2 2 2 2 2 2 2 2 2 2 2 2 2 2
left_child=4 26 3 40 8 6 15 10 17 11 -8 43 57 14 -14 -6 18 49 19 -7 36 37 -16 -12 25 41 32 28 33 -30 53 -25 -2 -15 -35 47 -21 38 -5 61 -3 -17 -39 44 -10 46 -19 52 -4 -1 -51 -24 -36 -9 55 60 -34 -11 -58 -26 -55 -27 -63
right_child=1 2 48 21 5 16 7 30 9 12 23 -13 13 27 22 24 -18 45 -20 20 -22 -23 51 31 59 39 -28 -29 29 -31 -32 -33 56 34 35 -37 -38 42 -40 -41 -42 -43 -44 -45 -46 -47 -48 -49 -50 50 -52 -53 -54 54 -56 -57 58 -59 -60 -61 -62 62 -64
leaf_value=-0.018215879996839653 0.024553336497558031 -1.3580021565741709 -0.38130645868319607 -1.7699682409367725 0.18118579942566518 0.1616423698380125 0.39449367690535647 0.92930123829007449 2.3983767445945232 -0.056727095042645753 1.0665143523365259 -0.58454209533820767 0.0011600753997035068 -0.019690838618714519 0.83258529009742555 0.53596668657351765 -0.103480989090453 -0.40966674324114616 -0.1263241845958441 0.71736634310009961 0.47282352219158003 -1.6118238263938247 4.3406216421080304 4.1978299792915488 0.28048532401662402 1.1072081683647379 -0.15189851919508138 0.47698622926206247 0.16473887579264956 0.6680032432224835 0.36904895440027258 2.681027313869258 1.3315866996653569 -0.06176129763915425 5.2336698046741006 0.39356330494404002 1.9470900161718412 -0.99243111799817096 -0.81835357939211972 -0.17934160407711852 -1.9773537316928966 1.6067701448622129 -0.58315666935967025 2.8514060747418566 -0.42287414536971824 -0.15378718619098586 -1.5655402127569613 1.6770921425693299 -0.0035472163925376644 0.25809896834640539 -0.084697878189384165 1.9754133894037502 0.71716051617493992 4.8738065085943463 1.0244994847068025 1.0378249106146777 0.2078515153937861 0.14873850925036244 0.75815695499136093 0.84424994676038212 2.5743555598097658 2.0711837986606687 4.1303111871035174
leaf_weight=123901 31681 3061 17305 4477 22437 21450 614 2655 1327 46663 294 511 725 30321 339 4572 22305 4773 9969 1175 16732 4338 431 1252 8517 426 21079 22521 17064 11348 2364 967 741 1343 187 367 1712 11609 8731 188 12521 985 10470 1331 389 50932 784 289 9275 35382 20855 237 52 206 985 293 23191 30324 2846 3246 436 859 295
leaf_count=123901 31681 3061 17305 4477 22437 21450 614 2655 1327 46663 294 511 725 30321 339 4572 22305 4773 9969 1175 16732 4338 431 1252 8517 426 21079 22521 17064 11348 2364 967 741 1343 187 367 1712 11609 8731 188 12521 985 10470 1331 389 50932 784 289 9275 35382 20855 237 52 206 985 293 23191 30324 2846 3246 436 859 295
internal_value=0.00193448 -0.43201 -0.919887 -1.24266 0.13469 0.350857 0.61729 1.50838 0.0675759 0.199669 2.68756 1.83099 0.163887 0.290071 1.5139 0.401282 0.163443 -0.024962 0.280095 0.378749 0.616117 -1.00159 2.60301 3.24783 0.659995 1.01961 0.0696612 0.264683 0.186264 0.365747 0.976994 3.53683 0.149551 0.029642 0.698016 1.83811 1.4466 -0.926573 -1.14091 1.94318 -1.85569 0.725771 -0.798351 2.23609 1.75883 -0.195001 -0.572741 2.84217 -0.249489 0.02836 0.130976 3.50147 4.251 1.29113 1.79148 2.59947 0.297435 0.0242027 0.268003 0.436056 3.31219 2.19573 2.59756
internal_weight=688655 161325 81787 55207 527330 124934 51591 10066 402396 165769 3127 3558 162211 85224 1732 41525 73343 236627 51038 41069 19619 39625 1007 2513 19088 7325 79538 83492 60971 28412 6939 2219 58459 32559 2238 895 2887 35287 13208 1768 15582 5557 22079 3047 1716 56489 5557 528 26580 180138 56237 668 239 4575 1920 935 26778 76987 26037 11763 642 1580 1154
internal_count=688655 161325 81787 55207 527330 124934 51591 10066 402396 165769 3127 3558 162211 85224 1732 41525 73343 236627 51038 41069 19619 39625 1007 2513 19088 7325 79538 83492 60971 28412 6939 2219 58459 32559 2238 895 2887 35287 13208 1768 15582 5557 22079 3047 1716 56489 5557 528 26580 180138 56237 668 239 4575 1920 935 26778 76987 26037 11763 642 1580 1154
is_linear=0
shrinkage=0.05


Tree=8
num_leaves=64
num_cat=0
split_feature=18 9 13 21 33 13 16 24 2 0 36 0 36 9 17 26 0 13 9 17 0 16 15 8 16 21 12 16 13 8 30 18 35 0 40 43 21 17 33 22 26 33 36 9 17 14 9 33 40 34 9 9 3 18 16 8 12 38 13 43 37 16 9
split_gain=1.418e+07 1.435e+07 6.18829e+06 2.70024e+06 2.00482e+06 2.88449e+06 3.3305e+06 1.83245e+06 1.6145e+06 1.50342e+06 1.43865e+06 3.51516e+06 1.19035e+06 862856 851633 785321 948068 1.06795e+06 662821 637580 593279 756216 587254 517438 501574 763621 495101 488171 1.02751e+06 548901 475764 458775 610867 569208 420950 419727 418836 1.02282e+06 399759 386268 440552 382799 687877 381512 358492 354220 722719 344570 332618 332267 424780 532939 310307 423409 308817 566593 339205 300267 289096 287753 271838 271194 267242
threshold=4.3491124243246757 10.954451150630616 141.50000000000003 14.40000000000005 315.50000000000006 295.50000000000006 144.09999999999999 27985.900485484624 215.16666666666671 341.50000000000006 346.50000000000006 196.50000000000003 465.50000000000006 3.1304951680044728 -3.1208430705911558 6.441901120747894 239.50000000000003 197.50000000000003 8.7635609192090147 3.8729833462063135 299.50000000000006 62.099999999999916 587.50000000000011 366.68333333333339 29.999999999999989 -42.20000000000001 412.50000000000006 206.39999999999998 234.50000000000003 485.85000000000008 -0.91597561503675329 0.93841834235718091 285.50000000000006 315.50000000000006 218.50000000000003 398.50000000000006 -33.466666666666676 3.8729833461854812 190.50000000000003 1.0000000180025095e-35 41.044680954370101 298.50000000000006 299.50000000000006 16.546903036053855 -0.12053740011210995 301.10000000000008 1.0000000180025095e-35 357.50000000000006 252.50000000000003 351.50000000000006 1.0000000180025095e-35 77.802312528632541 275.30000000000001 0.8974362208882628 200.40000000000001 366.68333333333339 516.50000000000011 298.50000000000006 157.50000000000003 427.50000000000006 557.50000000000011 62.099999999999916 0.44721363730764563
decision_type=2 2 2 2 2 2 2 2 2 2 2 2 2 2 2 2 2 2 2 2 2 2 2 2 2 2 2 2 2 2 2 2 2 2 2 2 2 2 2 2 2 2 2 2 2 2 2 2 2 2 2 2 2 2 2 2 2 2 2 2 2 2 2
left_child=3 26 8 10 20 6 31 9 14 -8 18 12 49 30 -3 59 17 -17 41 24 21 -5 39 44 -10 -26 62 -9 29 -29 -11 32 33 -6 -32 45 -16 -38 -4 54 -41 -1 -43 -24 -19 46 -34 -36 58 50 -12 -52 53 -20 -18 56 -56 -23 -15 -13 -45 -40 -2
right_child=1 2 38 4 5 -7 7 27 19 13 11 15 -14 48 36 16 22 23 52 -21 -22 57 43 -25 25 -27 -28 28 -30 -31 34 -33 35 -35 47 -37 37 -39 61 40 -42 42 -44 60 -46 -47 -48 -49 -50 -51 51 -53 -54 -55 55 -57 -58 -59 -60 -61 -62 -63 -64
leaf_value=-0.051987449312241134 0.039166771045717794 -0.93283197071663171 -1.1260293483507282 0.021851497418190535 -0.65779607285278641 0.0096568609991086064 0.084350490041507575 0.67484916725926014 -0.66432928407568292 1.1109540972668002 2.2602803771203397 -0.063305518207037781 -0.52159995033520545 4.1992746436260111 -1.9188952704308229 -0.013147130257039201 -0.037206259527832533 4.1842309420105952 -0.32165538101943364 -1.5032413476094 -0.2447381125050416 0.28096634012597693 0.51321085347926654 0.77853620695889625 -1.6307175260048841 -0.73458076308580633 0.22897660929700622 3.2095362703982051 0.67424637805508347 1.1513838241357948 4.0210690051756961 -0.083587418816545758 1.1905594126753614 1.6807260086420119 -0.063382983207702637 0.59607157558658563 -0.96532630795498875 -1.878457711484822 -0.44262507397935152 0.10833002790890026 0.61747809872664483 0.31425044136105218 -0.089022936926492838 0.70682430636383764 1.7309154937632414 0.15130053339341348 -0.062217803211893775 2.9481498441290168 0.47630608386952034 2.8455474569966945 -0.6155361066932965 2.069281582829599 -0.16012570262110604 -1.1326440189770361 3.6970447118676035 0.071551419640267941 -0.5209890720297079 0.76452085326631958 1.7383923632825509 0.14963013774278094 -0.13047947584213568 -0.093682197592920805 -0.23343109285836039
leaf_weight=129172 36419 5805 1236 43559 306 25419 727 6327 16349 254 1335 49035 511 142 7408 738 28024 419 6297 4113 9872 35762 19210 292 4155 5556 30556 885 1924 511 1186 3831 2675 1739 108 21617 5863 6430 8189 12371 6471 22089 20285 1234 231 14392 2021 788 461 978 359 381 17508 2162 218 635 61 3527 748 23455 4520 17398 11938
leaf_count=129172 36419 5805 1236 43559 306 25419 727 6327 16349 254 1335 49035 511 142 7408 738 28024 419 6297 4113 9872 35762 19210 292 4155 5556 30556 885 1924 511 1186 3831 2675 1739 108 21617 5863 6430 8189 12371 6471 22089 20285 1234 231 14392 2021 788 461 978 359 381 17508 2162 218 635 61 3527 748 23455 4520 17398 11938
internal_value=-0.000604303 -0.410615 -0.871684 0.125032 0.282969 0.456761 0.644172 1.3186 -1.17224 2.16243 0.0438919 0.160365 1.71193 2.57219 -1.46508 0.122725 0.236815 1.41111 -0.0448446 -0.924698 0.121658 0.165317 0.209695 2.52693 -0.833388 -1.11801 0.0714245 0.932499 1.42351 2.45616 3.15388 0.440589 0.487563 1.33081 3.40311 0.445198 -1.62192 -1.44295 -0.247784 0.107007 0.283189 -0.00920846 0.121198 0.406234 3.31236 0.274336 0.651406 2.58515 1.56639 2.08576 1.72766 0.766782 -0.280268 -0.528933 -0.00770812 0.896729 2.77482 0.324375 2.13103 0.00559234 0.0490883 -0.20536 -0.0281301
internal_weight=688187 161415 82502 526772 178781 86061 60642 14061 55679 4414 347991 150478 3564 3687 25506 146914 74424 1680 197513 30173 92720 82848 72744 942 26060 9711 78913 9647 3320 1396 2336 46581 42750 2045 2082 40705 19701 12293 26823 47780 18842 171546 42374 24964 650 19088 4696 896 1351 3053 2075 740 25967 8459 28938 914 279 39289 890 72490 5754 25587 48357
internal_count=688187 161415 82502 526772 178781 86061 60642 14061 55679 4414 347991 150478 3564 3687 25506 146914 74424 1680 197513 30173 92720 82848 72744 942 26060 9711 78913 9647 3320 1396 2336 46581 42750 2045 2082 40705 19701 12293 26823 47780 18842 171546 42374 24964 650 19088 4696 896 1351 3053 2075 740 25967 8459 28938 914 279 39289 890 72490 5754 25587 48357
is_linear=0
shrinkage=0.05


Tree=9
num_leaves=64
num_cat=0
split_feature=18 9 13 32 32 8 9 26 14 40 9 10 0 37 9 15 9 12 22 32 16 13 22 26 9 22 9 0 33 4 12 18 27 13 35 18 9 31 32 22 12 24 34 3 9 32 31 8 37 16 13 0 12 37 38 16 31 33 24 13 0 18 32
split_gain=1.28518e+07 1.30513e+07 5.68776e+06 2.56262e+06 2.36793e+06 4.14505e+06 1.71268e+06 1.53838e+06 1.68648e+06 835448 745434 1.77432e+06 940147 884827 698387 683926 636561 2.57681e+06 667068 631255 858804 1.0544e+06 675622 731637 603974 602230 555574 436727 383486 375359 374212 371332 347838 346230 331835 460980 322678 317779 434917 308911 307356 286059 277549 270636 495357 262722 261002 258945 1.2587e+06 626714 381694 284360 303309 564801 292020 248383 247927 247620 245375 241326 261076 238273 236067
threshold=4.3491124243246757 13.160547102809845 141.50000000000003 186.50000000000003 337.50000000000006 286.15000000000003 4.0249223595759878 7.307308427096264 286.10000000000008 221.50000000000003 1.0000000180025095e-35 35.636792118552307 188.50000000000003 298.50000000000006 1.7888543866705069 343.10000000000008 83.801551298476454 527.50000000000011 -51.716666666666676 583.50000000000011 203.19999999999993 253.50000000000003 1.0000000180025095e-35 35.653587961181863 12.521980674680327 -53.600000000000001 1.0000000180025095e-35 336.50000000000006 191.50000000000003 374.03333333333336 346.50000000000006 -2.0373098960637468 5.5000000000000009 71.500000000000014 292.50000000000006 0.90049686290062547 50.087922696094587 -0.78656609248549325 444.50000000000006 -13.983333333333347 186.50000000000003 68374.842159671141 390.50000000000006 274.30000000000001 87.206651122459405 511.50000000000006 -0.37940952255126015 370.71666666666675 415.50000000000006 200.40000000000001 240.50000000000003 270.50000000000006 337.50000000000006 243.50000000000003 298.50000000000006 62.099999999999916 0.78656609248549303 337.50000000000006 27446.374277627769 129.50000000000003 251.50000000000003 -2.0923856109466428 156.50000000000003
decision_type=2 2 2 2 2 2 2 2 2 2 2 2 2 2 2 2 2 2 2 2 2 2 2 2 2 2 2 2 2 2 2 2 2 2 2 2 2 2 2 2 2 2 2 2 2 2 2 2 2 2 2 2 2 2 2 2 2 2 2 2 2 2 2
left_child=4 26 3 40 10 6 9 24 14 32 11 -1 15 16 31 -13 39 18 29 20 22 37 -10 -24 33 -8 30 -27 -4 -18 -2 -9 -6 -7 35 -29 -16 -22 -39 -12 62 -32 56 44 -15 -5 -40 48 51 -50 -51 -14 53 54 -53 -30 -11 -26 -34 -38 -61 -44 -3
right_child=1 2 28 45 5 7 25 8 19 42 13 12 47 43 36 -17 17 -19 -20 -21 21 -23 23 -25 57 27 -28 34 55 -31 41 -33 58 -35 -36 -37 59 38 46 -41 -42 -43 61 -45 -46 -47 -48 -49 49 50 -52 52 -54 -55 -56 -57 -58 -59 -60 60 -62 -63 -64
leaf_value=0.02175769391157888 0.022907236154276089 -1.6656039083696184 -1.082677032597825 -0.96529421946040306 3.8379580575561052 0.062643268332999713 2.9228005582834005 3.3979963642333475 0.0088349057845425339 0.71679976718009308 -0.257011278813913 -0.12125917336516763 0.21548980045468769 -0.71103303364525061 0.19236645139947844 1.9330693219769182 2.3524434328553609 -0.1689439320394448 0.11573548174605071 0.50869040841031399 5.3481786545619228 0.36996335982257145 0.16645899855861351 0.6165407276017536 -0.39416648841755264 -0.72030689361766753 -0.15413804746568976 1.6847474454670852 -0.42849420103136365 4.6835333229955829 0.44466939423784257 1.7220429552977885 2.7174116100477814 0.33130739665687514 0.064186449801058781 0.035399403961768286 4.1034911933015374 4.3188627763115681 3.4709698247603882 0.015398487899973851 -1.7880423118959627 0.11739138498044493 3.9144796469441339 -0.24464031978969061 1.5337964864447713 -0.56426603290634336 0.69936017472897805 0.083778857091500653 0.55915742677090507 4.1575814980758903 1.1428244011297535 0.49944063776079128 0.037826721751106629 2.6527914987492336 1.5004831210966112 -0.091697294030015475 2.6502460231208924 0.0020648204781710481 0.44690667252609695 3.2153933213307306 0.66442348993508515 1.5307179650888143 -0.79054486583201466
leaf_weight=180734 31781 1550 1290 33816 733 21844 284 471 27753 994 12975 537 13127 6137 1008 1650 1068 3880 302 28170 103 1229 24571 14275 4224 584 22362 1333 8028 206 13014 1108 864 26588 1067 621 85 193 117 52584 12467 13711 179 18836 256 4645 310 6807 319 395 143 5325 1939 368 844 17209 199 59273 138 130 439 253 1533
leaf_count=180734 31781 1550 1290 33816 733 21844 284 471 27753 994 12975 537 13127 6137 1008 1650 1068 3880 302 28170 103 1229 24571 14275 4224 584 22362 1333 8028 206 13014 1108 864 26588 1067 621 85 193 117 52584 12467 13711 179 18836 256 4645 310 6807 319 395 143 5325 1939 368 844 17209 199 59273 138 130 439 253 1533
internal_value=-0.000431876 -0.39085 -0.841381 -1.13585 0.119013 0.244683 1.42037 0.204462 0.347022 2.2472 0.0297246 0.0820752 0.428658 -0.085692 1.46895 1.42865 0.00467028 0.523583 2.22853 0.309428 0.227544 1.26127 0.197246 0.331854 0.0771436 0.706005 0.0578432 0.531367 -0.241815 2.72937 0.138866 2.22196 3.01022 0.210133 0.773333 1.16057 0.753541 2.77636 2.34911 -0.038515 -1.6775 0.276763 1.43253 -0.340045 -0.621142 -0.916861 1.45879 0.353933 0.435809 2.3151 3.35626 0.361257 0.587011 0.749909 0.636396 -0.198834 1.03931 -0.0242936 2.40471 1.61847 1.24725 2.51843 -1.23049
internal_weight=688978 161406 80538 54011 527572 219140 7249 211891 99962 3360 308432 212188 31454 96244 3241 2187 71015 5456 1576 96721 68551 1952 66599 38846 111929 3889 80868 3605 26527 1274 58506 1579 1735 48432 3021 1954 1662 723 620 65559 15550 26725 1625 25229 6393 38461 427 29267 22460 857 538 21603 8476 6537 6169 25237 1193 63497 1002 654 569 432 3083
internal_count=688978 161406 80538 54011 527572 219140 7249 211891 99962 3360 308432 212188 31454 96244 3241 2187 71015 5456 1576 96721 68551 1952 66599 38846 111929 3889 80868 3605 26527 1274 58506 1579 1735 48432 3021 1954 1662 723 620 65559 15550 26725 1625 25229 6393 38461 427 29267 22460 857 538 21603 8476 6537 6169 25237 1193 63497 1002 654 569 432 3083
is_linear=0
shrinkage=0.05


Tree=10
num_leaves=64
num_cat=0
split_feature=18 9 32 13 32 8 9 16 14 23 22 9 9 16 0 37 15 22 43 16 9 17 36 8 35 17 32 11 12 0 31 12 9 14 16 35 18 38 36 9 11 12 0 32 2 35 42 27 14 43 30 14 13 16 15 16 10 16 3 9 36 41 22
split_gain=1.17297e+07 1.18521e+07 5.30517e+06 2.39667e+06 2.21837e+06 4.01886e+06 1.61516e+06 1.34235e+06 1.30635e+06 890426 840675 733585 670420 1.61175e+06 923740 805953 617085 608479 580158 551884 516563 2.55885e+06 513938 533900 580029 513447 472359 511402 470564 450886 429997 413827 386460 372077 381424 337193 437022 306372 312194 305893 303998 299553 297944 290304 322044 298708 288325 282911 273591 263186 260951 317414 255091 461362 253901 253086 249317 243922 243518 386656 239782 234808 230475
threshold=4.3491124243246757 9.3112834802085374 206.50000000000003 201.50000000000003 337.50000000000006 290.31666666666672 4.0249223595759878 385.19999999999999 281.7000000000001 117.48181191321277 10.316666666666665 1.0954451307151218 1.0000000180025095e-35 73.09999999999998 188.50000000000003 298.50000000000006 343.10000000000008 -51.716666666666676 357.50000000000006 129.09999999999999 83.801551298476454 -0.45314179654801573 590.50000000000011 545.41666666666674 599.50000000000011 3.8729833462063135 178.50000000000003 172.50000000000003 521.50000000000011 336.50000000000006 0.25881904510252057 409.50000000000006 22.360679775390498 278.90000000000009 236.10000000000002 261.50000000000006 0.90049686290062547 363.50000000000006 298.50000000000006 1.0000000180025095e-35 586.50000000000011 419.50000000000006 226.50000000000003 186.50000000000003 186.16666666666671 210.50000000000003 141.50000000000003 18.500000000000004 240.10000000000005 361.50000000000006 0.12940952255126045 289.10000000000008 240.50000000000003 218.80000000000007 558.10000000000014 236.10000000000002 51.857313391876779 61.099999999999973 283.50000000000006 90.127687184687275 286.50000000000006 283.50000000000006 -1.0000000180025095e-35
decision_type=2 2 2 2 2 2 2 2 2 2 2 2 2 2 2 2 2 2 2 2 2 2 2 2 2 2 2 2 2 2 2 2 2 2 2 2 2 2 2 2 2 2 2 2 2 2 2 2 2 2 2 2 2 2 2 2 2 2 2 2 2 2 2
left_child=4 31 26 25 12 6 9 8 11 60 22 30 13 62 16 20 -15 -8 19 -12 43 28 -10 24 -24 32 -3 -28 41 -19 -7 56 -4 34 46 36 55 38 50 -25 -9 -22 -13 44 -14 57 -11 -39 -32 -33 -20 -52 53 -21 -18 -31 -2 -45 59 -17 61 -6 -1
right_child=1 2 3 -5 5 7 17 40 10 33 18 42 15 14 -16 58 54 29 37 52 21 -23 23 39 -26 -27 27 -29 -30 35 48 49 -34 -35 -36 -37 -38 47 -40 -41 -42 -43 -44 45 -46 -47 -48 -49 -50 -51 51 -53 -54 -55 -56 -57 -58 -59 -60 -61 -62 -63 -64
leaf_value=-0.085818143232115979 -0.026587617736097659 -1.6250510747567486 -0.40165409412989705 -0.14503369472210043 0.99950256442528063 1.3156895677273548 2.7910305838948624 -0.052683039353794259 0.050784394354939637 0.29399453423641347 0.048321464662121671 2.7836823274027296 -0.29440384962421345 -0.11759648795906955 0.33464275250944031 -0.62312155286248716 2.0477626654115948 -0.74961894856435551 0.69692117771569728 0.69998990206301492 2.2284330136024137 -0.15762274463157014 0.75116288814216536 0.44088394444494999 3.6199264323731408 -1.3244726954468944 -0.75652671283249062 -1.5602574411353114 -0.21234968550693079 2.160498760133339 4.7770775521212618 0.066595552953091067 -0.81115728485975347 -0.058064271262455218 0.8572396342953047 0.22995225698019489 0.053343313313702984 0.64775872193692197 0.090966556035191937 0.070619163943954039 0.24672585002642516 4.0336983556820263 0.43709158167185413 -0.013564329228411311 -1.7929522790399064 -0.085595520785289439 3.349574094312294 0.35597856942327444 2.2895072323338739 0.36319783992524329 6.0955351615356186 0.95175181219323746 0.14737567178684208 2.7561507460817496 -0.34975975774416401 0.092994777235270901 1.6026065324338437 0.33088608744206199 -0.22027312795125262 1.2559167624674215 0.40988859559717555 2.4649908297866876 0.049857980668953049
leaf_weight=40241 47190 14076 7276 23168 589 1564 313 51126 54395 81 18364 142 3882 508 29028 7604 1533 609 282 3228 880 4008 648 13074 242 3992 4121 3808 157 904 145 14561 27678 107 192 1641 516 23389 6328 9729 10163 311 2854 10949 395 40499 1647 12884 465 15378 59 61 1839 298 119 177 236 9687 17307 284 562 510 140891
leaf_count=40241 47190 14076 7276 23168 589 1564 313 51126 54395 81 18364 142 3882 508 29028 7604 1533 609 282 3228 880 4008 648 13074 242 3992 4121 3808 157 904 145 14561 27678 107 192 1641 516 23389 6328 9729 10163 311 2854 10949 395 40499 1647 12884 465 15378 59 61 1839 298 119 177 236 9687 17307 284 562 510 140891
internal_value=-0.000401126 -0.373262 -0.784061 -0.54772 0.113763 0.235392 1.34641 0.194123 0.274686 2.10823 0.246806 1.05566 0.0273086 0.0768793 0.408871 -0.0823676 1.40642 0.671034 0.377121 0.178655 0.00409172 0.476178 0.135442 0.3298 1.53121 -0.787268 -1.45118 -1.14253 2.36065 0.498547 1.75485 0.0733988 -0.725915 2.81151 2.97143 0.733301 1.25052 0.486634 0.1768 0.282909 -0.00303477 2.69983 0.548312 -0.0345632 -0.432801 -0.00670247 3.20634 0.54412 2.88081 0.218944 1.52792 3.48078 0.624776 0.873766 1.87506 1.82197 -0.0184805 0.148128 -0.325215 -0.555469 1.24998 1.67957 0.0197156
internal_weight=688894 161484 84119 62114 527410 219127 7848 211279 149990 3688 144820 5170 308283 212320 31188 95963 2160 4160 66732 23729 70768 5356 78088 23693 890 38946 22005 7929 1348 3847 2174 77365 34954 2027 1920 3238 1597 43003 6730 22803 61289 1191 2996 65412 4277 61135 1728 36273 610 29939 402 120 5365 3526 1652 1081 47426 20636 25195 7888 1661 1099 181132
internal_count=688894 161484 84119 62114 527410 219127 7848 211279 149990 3688 144820 5170 308283 212320 31188 95963 2160 4160 66732 23729 70768 5356 78088 23693 890 38946 22005 7929 1348 3847 2174 77365 34954 2027 1920 3238 1597 43003 6730 22803 61289 1191 2996 65412 4277 61135 1728 36273 610 29939 402 120 5365 3526 1652 1081 47426 20636 25195 7888 1661 1099 181132
is_linear=0
shrinkage=0.05


Tree=11
num_leaves=64
num_cat=0
split_feature=9 16 21 32 17 12 16 9 10 24 3 36 13 26 21 22 27 3 21 13 21 17 17 26 16 23 9 17 33 33 8 31 9 34 8 37 16 2 15 2 43 12 13 9 0 23 31 32 2 13 13 0 39 22 26 32 17 3 9 9 14 37 36
split_gain=9.0007e+06 1.14403e+07 4.57661e+06 3.4438e+06 2.39897e+06 1.91274e+06 1.42128e+06 1.19369e+06 983155 1.71959e+06 827234 913780 755798 748979 1.70203e+06 1.89512e+06 737548 767755 657654 761827 637726 726603 600695 589659 532310 527660 518697 493279 480622 479862 425629 399678 384759 383094 378376 825300 624785 353840 351604 350547 342613 317926 290800 274509 269258 258719 328223 257574 268484 252425 454448 250515 248812 247635 300611 244946 239576 230522 227643 226960 282031 229398 256839
threshold=12.049896267868421 45.900000000000041 46.800000000000011 188.50000000000003 -2.1906689574275151 409.50000000000006 189.89999999999998 21.01903898867587 70.604094032933986 41430.393324255689 340.7000000000001 298.50000000000006 188.50000000000003 6.6970043257905942 -132.0333333333333 -143.5333333333333 6.5000000000000009 589.30000000000007 -1.0000000180025095e-35 61.500000000000007 7.7999999999999838 1.6746658200637587 3.8729833461854812 102.48559186406226 23.099999999999969 126.09083184593537 0.54772254857932767 -0.61074832810330748 276.50000000000006 354.50000000000006 370.71666666666675 0.25881904510252057 1.0000000180025095e-35 290.50000000000006 355.18333333333339 371.50000000000006 200.40000000000001 336.16666666666669 806.30000000000007 258.83333333333343 424.50000000000006 188.50000000000003 234.50000000000003 1.0000000180025095e-35 355.50000000000006 221.58086506415765 -0.78656609248549325 190.50000000000003 355.16666666666669 201.50000000000003 240.50000000000003 284.50000000000006 347.50000000000006 7.3833333333333266 43.240778876463658 149.50000000000003 2.4044051684236369 361.10000000000008 1.0000000180025095e-35 87.206651122459405 184.90000000000003 575.50000000000011 599.50000000000011
decision_type=2 2 2 2 2 2 2 2 2 2 2 2 2 2 2 2 2 2 2 2 2 2 2 2 2 2 2 2 2 2 2 2 2 2 2 2 2 2 2 2 2 2 2 2 2 2 2 2 2 2 2 2 2 2 2 2 2 2 2 2 2 2 2
left_child=2 3 5 41 12 6 18 24 43 10 -10 31 -3 29 15 -15 23 34 -1 56 -16 28 39 -7 -5 32 -8 59 51 47 -14 45 -21 37 35 -18 -37 -30 -11 -9 -19 55 58 -4 -31 46 -12 -6 -49 -13 52 -22 -51 -36 -55 -2 -20 -46 -38 -17 -61 62 -62
right_child=1 4 8 7 13 16 26 22 9 38 11 49 30 14 20 27 17 40 19 25 21 -23 -24 -25 -26 -27 -28 -29 33 44 -32 -33 -34 -35 53 36 42 -39 -40 -41 -42 -43 -44 -45 57 -47 -48 48 -50 50 -52 -53 -54 54 -56 -57 -58 -59 -60 60 61 -63 -64
leaf_value=-0.095850351603786868 -1.4821172562704263 -1.4051533882093468 0.62310734519150845 -0.52288093000956559 -1.0364867769318331 0.65344230493366251 1.7632467504380316 -0.85738326587570557 0.18228238761715224 0.96491152470178998 3.4450523496974235 0.44627137785104831 2.8199028177340644 0.027079743135496461 -0.20908761634045261 0.20388108066150121 0.17552438872629528 0.12225297048867244 0.01867124705409124 0.29148225628694335 0.14278305168287184 -0.29824179342092788 -1.3515384912813539 0.070942060204675347 0.10325067176394179 2.5778530892039258 -0.6462165300274032 0.23384884611637183 0.73876554275000039 -0.26121430948831514 -0.39218164917610143 3.3962982562525683 -0.065392153228836944 0.36711957257833877 0.042991647960166295 0.61139926150506296 3.9668095065823858 2.1543153475062762 0.20812033456498913 -0.53771565858828374 0.52506761285001169 -1.5870588505837453 1.1556912911545605 0.014638272836133549 0.91339720404581048 -0.26531546831999009 1.7940899230604448 -0.11617332792518753 -0.46304754302690787 1.814027451601065 0.5197290234052615 -0.66727268664276862 4.1817713574192688 0.14822066725137378 0.5940705700036909 -0.66079617335457175 -0.32839004752003742 0.025595732377701793 0.48978289498223204 2.0377611055810156 3.2463218775576337 0.9053102183653865 5.9105662486463224
leaf_weight=97560 1735 3993 9158 6729 989 16825 1549 16105 629 3269 447 684 109 1879 13585 98 4043 7082 144243 39201 13336 6251 3775 5857 6850 239 261 267 2380 8675 1916 1147 9355 12862 61232 715 367 542 2893 18345 20732 11782 188 2324 740 103 922 19555 7805 261 407 1028 193 21247 4599 1904 5150 61296 54 838 617 86 106
leaf_count=97560 1735 3993 9158 6729 989 16825 1549 16105 629 3269 447 684 109 1879 13585 98 4043 7082 144243 39201 13336 6251 3775 5857 6850 239 261 267 2380 8675 1916 1147 9355 12862 61232 715 367 542 2893 18345 20732 11782 188 2324 740 103 922 19555 7805 261 407 1028 193 21247 4599 1904 5150 61296 54 838 617 86 106
internal_value=0.000355597 -0.258167 0.126663 -0.804971 -0.0269101 0.0911819 0.0189684 -0.609718 0.823244 1.16209 1.87238 2.12767 -1.00612 0.0116218 0.161662 1.16893 0.241508 0.192182 0.0104196 0.0627321 0.0832512 0.192359 -0.752769 0.503028 -0.207025 0.234261 1.4158 2.2353 0.294082 -0.0699793 -0.219284 2.69657 0.222725 0.484528 0.122886 0.53034 1.61381 1.00134 0.609605 -0.687157 0.422503 -1.46089 2.7907 0.499951 -0.000299871 2.15133 2.33316 -0.243781 -0.215126 1.16332 1.73295 0.0848091 2.82058 0.0977726 0.227555 -1.05239 0.00670706 0.0361859 3.52083 2.54154 2.68063 3.34655 3.63693
internal_weight=689114 226178 462936 67225 158953 440499 297558 51804 22437 10955 4793 4164 6018 152935 53875 3891 142941 120259 295748 198188 49984 36399 38225 22682 13579 48795 1810 2012 30148 99060 2025 2619 48556 15784 92445 5367 1324 2922 6162 34450 27814 15421 609 11482 70711 1472 1369 28349 27360 1545 861 14364 454 87078 25846 3639 149393 62036 421 1745 1647 809 723
internal_count=689114 226178 462936 67225 158953 440499 297558 51804 22437 10955 4793 4164 6018 152935 53875 3891 142941 120259 295748 198188 49984 36399 38225 22682 13579 48795 1810 2012 30148 99060 2025 2619 48556 15784 92445 5367 1324 2922 6162 34450 27814 15421 609 11482 70711 1472 1369 28349 27360 1545 861 14364 454 87078 25846 3639 149393 62036 421 1745 1647 809 723
is_linear=0
shrinkage=0.05


Tree=12
num_leaves=64
num_cat=0
split_feature=18 9 32 13 21 9 16 33 23 0 12 18 13 13 8 4 21 0 43 13 33 35 22 14 32 17 2 9 11 0 9 4 32 11 9 35 37 9 35 42 13 26 35 27 9 13 16 16 13 16 39 30 9 16 13 26 0 9 32 8 16 37 30
split_gain=9.60719e+06 9.55044e+06 4.4709e+06 2.00029e+06 1.99667e+06 1.37796e+06 2.72775e+06 1.3983e+06 1.46497e+06 1.01766e+06 820579 648941 642180 4.67987e+06 942405 868360 865467 756906 622070 595307 731697 756445 483329 467904 509757 451198 429769 423868 422723 411670 408350 386528 374278 417682 368025 350286 348031 345124 334348 299913 299142 298378 296662 295518 292069 284150 278932 278357 528497 264273 275757 261676 259288 249784 392628 248399 657402 236423 241895 235775 226671 231504 226279
threshold=4.3491124243246757 8.396427814126028 206.50000000000003 201.50000000000003 24.400000000000052 1.6431676931938328 139.09999999999999 453.50000000000006 117.48181191321277 410.50000000000006 277.50000000000006 0.90049686290062547 197.50000000000003 253.50000000000003 366.68333333333339 304.90000000000003 -23.533333333333314 271.50000000000006 367.50000000000006 523.50000000000011 336.50000000000006 298.50000000000006 1.0000000180025095e-35 294.50000000000006 315.50000000000006 3.8729833462063135 348.16666666666669 0.54772254857932767 583.50000000000011 336.50000000000006 1.0000000180025095e-35 358.30000000000001 178.50000000000003 172.50000000000003 22.360679775390498 410.50000000000006 188.50000000000003 80.515215953325793 599.50000000000011 416.50000000000006 295.50000000000006 20.831813416430492 299.50000000000006 10.500000000000002 28.481572990821807 66.500000000000014 236.10000000000002 74.09999999999998 86.500000000000014 200.40000000000001 167.50000000000003 -0.91597561503675329 32.315630893327317 206.39999999999998 234.50000000000003 1541967576353.7507 299.50000000000006 9.3112834802085374 205.50000000000003 438.18333333333339 214.09999999999999 304.50000000000006 -0.5
decision_type=2 2 2 2 2 2 2 2 2 2 2 2 2 2 2 2 2 2 2 2 2 2 2 2 2 2 2 2 2 2 2 2 2 2 2 2 2 2 2 2 2 2 2 2 2 2 2 2 2 2 2 2 2 2 2 2 2 2 2 2 2 2 2
left_child=4 35 32 25 9 6 10 8 26 12 -6 19 16 14 15 27 30 31 -11 20 52 29 28 24 -12 34 -8 -14 -20 -22 -1 -17 -3 -34 -4 -2 49 -29 60 -25 53 -26 45 -24 -31 -32 -46 -43 -49 -10 -51 -28 -7 -9 59 -18 -57 -15 -59 -55 -16 -62 -37
right_child=1 2 3 -5 5 11 7 40 36 18 23 -13 13 57 38 17 55 -19 22 -21 21 -23 43 39 41 -27 51 37 -30 44 42 -33 33 -35 -36 62 -38 -39 -40 -41 -42 47 -44 -45 46 -47 -48 48 -50 50 -52 -53 -54 54 -56 56 -58 58 -60 -61 61 -63 -64
leaf_value=-0.081739320025720652 0.0026707625037653074 -1.4703097992363252 -0.34419310930395652 -0.1214802396785299 0.12301215444295135 0.0029774232491064857 0.20738009384172737 0.68635633244579397 0.88358256135178714 -0.00048290187037089915 0.53105498639060233 -0.18245349823580662 1.5787709976089535 0.098387815398442657 -0.15309668401787474 2.3716530797317956 -0.027442642987745614 0.13686744419859295 0.059545681955639265 -0.071500670329507604 -0.8593882925450409 0.39427044125252864 0.61579157192235023 0.10455278658592851 1.2102610068105055 -1.1997854542323605 0.15649808276772001 -0.29582210155354155 0.36880942706335712 0.29326027243632108 -0.23431884164493658 4.032088165485197 -0.68962526323863782 -1.4136645790808944 -0.73152125071891838 0.098343278825882147 3.5854445491475886 1.5165900246042925 3.8450512098229455 0.56393193353557647 0.26879477487404907 0.20443035219203343 -0.29412374986158019 0.28400847058907513 2.0091278442025153 -0.9651048430960234 0.23505280146782753 6.6776437728287092 0.31950793774688946 1.062164879826285 3.5127604904994372 1.9996811919824027 0.32977412410556495 3.2734592500981203 0.75337400798058929 0.30011576211320584 -0.17611768088968924 -0.96204273887261993 -0.15817749809360915 1.3534121592525874 3.1602413200948498 0.61838303879620704 0.42732142896471803
leaf_weight=12032 54983 14026 7865 23490 30219 18120 908 2518 261 37514 5524 14172 1757 10193 1164 1585 173326 324 35666 16027 199 17528 10951 6770 2761 4104 239 744 16009 406 1931 450 4101 3873 27846 11998 1004 406 69 7477 2312 55 9598 17336 1647 4275 256 91 51 161 400 991 9127 361 771 19793 11432 986 18395 287 101 792 9262
leaf_count=12032 54983 14026 7865 23490 30219 18120 908 2518 261 37514 5524 14172 1757 10193 1164 1585 173326 324 35666 16027 199 17528 10951 6770 2761 4104 239 744 16009 406 1931 450 4101 3873 27846 11998 1004 406 69 7477 2312 55 9598 17336 1647 4275 256 91 51 161 400 991 9127 361 771 19793 11432 986 18395 287 101 792 9262
internal_value=3.1262e-05 -0.337335 -0.700784 -0.487395 0.103356 0.264689 0.438032 1.18619 1.92076 0.0446983 0.293721 0.123385 -0.00885984 0.184712 1.30999 1.6687 -0.0396515 2.38146 0.167498 0.191848 0.281112 0.510482 0.246306 0.520684 0.8147 -0.703276 1.03245 1.09031 0.155356 1.32267 -0.301221 2.73883 -1.31481 -1.04129 -0.646216 0.0693129 2.96085 0.344038 0.421471 0.345641 0.720227 1.3444 -0.468318 0.412455 1.51073 -0.73772 1.77047 3.22439 4.39409 2.19797 2.80947 1.64153 0.112445 0.98533 1.51586 -0.00405625 0.125759 -0.0965504 -0.199074 2.42307 0.306631 0.905872 0.241664
internal_weight=689020 161548 85305 63305 527472 140643 63161 10213 3964 386829 52948 77482 269353 36966 7392 5266 232387 2359 117476 63310 47283 20036 79962 22729 8482 39815 2138 2907 51675 2508 27836 2035 22000 7974 35711 76243 1826 1150 2126 14247 6249 2958 15804 28287 2309 6206 1903 197 142 822 561 1230 27247 3937 1419 204551 31225 29574 19381 648 2057 893 21260
internal_count=689020 161548 85305 63305 527472 140643 63161 10213 3964 386829 52948 77482 269353 36966 7392 5266 232387 2359 117476 63310 47283 20036 79962 22729 8482 39815 2138 2907 51675 2508 27836 2035 22000 7974 35711 76243 1826 1150 2126 14247 6249 2958 15804 28287 2309 6206 1903 197 142 822 561 1230 27247 3937 1419 204551 31225 29574 19381 648 2057 893 21260
is_linear=0
shrinkage=0.05


Tree=13
num_leaves=64
num_cat=0
split_feature=18 9 10 21 32 9 10 33 23 36 0 36 26 0 15 18 2 10 21 23 9 2 9 17 15 14 9 38 26 30 43 11 32 33 23 31 18 22 23 12 17 18 22 21 24 3 10 26 33 9 10 15 33 0 11 0 24 10 30 42 32 39 31
split_gain=8.60585e+06 8.6022e+06 4.02914e+06 1.85534e+06 1.8071e+06 1.57451e+06 2.42583e+06 1.47574e+06 1.0672e+06 1.06707e+06 2.24218e+06 783413 707381 681203 685518 599148 570163 566044 623518 524590 517713 490066 456984 393220 387779 370719 550159 543383 345203 596467 466832 333823 321782 551165 314127 313824 308073 795150 305021 302487 299077 741625 340924 296481 278497 270606 270049 266877 266643 256892 255666 255159 243412 240589 470415 223230 318819 224117 220652 218791 215024 213296 210652
threshold=4.3491124243246757 13.160547102809845 50.746803793732504 28.833333333333346 191.50000000000003 2.7386128005201624 68.457494634119442 453.50000000000006 117.48181191321277 346.50000000000006 196.50000000000003 468.50000000000006 6.441901120747894 239.50000000000003 393.10000000000008 0.90049686290062547 276.16666666666669 165.01464581450367 54.43333333333333 -124.74578916894741 0.44721363730764563 362.16666666666669 1.0000000180025095e-35 3.870687123287833 410.10000000000008 298.50000000000006 1.0000000180025095e-35 294.50000000000006 336.99878162174065 -0.5 599.50000000000011 188.50000000000003 200.50000000000003 208.50000000000003 221.58086506415765 0.60355339059327384 4.3491124260386966 -17.983333333333345 110.06837206797469 191.50000000000003 1.0023029346874617 -0.73426573545126839 89.066666666666706 9.6333333333333275 29571.761018859364 262.7000000000001 61.05902686699212 35.653587961181863 165.50000000000003 57.510868538391883 99.158698915487534 548.30000000000007 381.50000000000006 276.50000000000006 299.50000000000006 266.50000000000006 32813.921545158912 83.670271218653042 -0.60355339059327362 413.50000000000006 160.50000000000003 429.50000000000006 -0.37940952255126015
decision_type=2 2 2 2 2 2 2 2 2 2 2 2 2 2 2 2 2 2 2 2 2 2 2 2 2 2 2 2 2 2 2 2 2 2 2 2 2 2 2 2 2 2 2 2 2 2 2 2 2 2 2 2 2 2 2 2 2 2 2 2 2 2 2
left_child=3 22 4 9 39 6 16 8 21 20 11 48 59 14 -14 17 -5 18 -7 -16 53 -8 43 36 -15 26 27 38 29 -26 -30 50 33 -22 -9 62 37 -6 -18 60 52 42 -42 47 -29 -38 -40 -2 -11 -43 -10 -27 -20 -1 -55 56 57 -31 -33 -12 -3 -46 -23
right_child=1 2 -4 5 23 15 7 34 31 10 12 -13 13 24 19 -17 25 -19 40 -21 32 35 -24 -25 28 51 -28 44 30 55 -32 58 -34 -35 -36 -37 45 -39 46 -41 41 49 -44 -45 61 -47 -48 -49 -50 -51 -52 -53 -54 54 -56 -57 -58 -59 -60 -61 -62 -63 -64
leaf_value=-0.019087710692250407 0.060120437053878421 -1.3365665083073597 -0.14441578503127467 0.13478796204911092 -1.3722571894169304 0.11234397146709424 0.25377638396393093 0.96009321017960625 1.2245630606794173 1.096143247662984 -0.062615612858095637 -0.4433090129298678 -0.066339011269607659 -0.087663530052476207 0.79115445840541321 -0.18175754079072787 0.61546319830398288 -0.06484259512212813 -0.033030842750376016 2.9970493242647307 -0.29815013463818968 2.0160458454436383 -0.14758024209149737 -1.1763353471321454 0.14369001194416209 0.16519432731794501 -0.080053570954671402 2.4520814377878342 -0.096957192227925079 0.9299147013877086 0.44221604842679363 2.0040184354504875 -0.11738018299683955 -1.6894438899052666 0.23428351421387095 3.51745321164077 -0.74124766927458774 -0.55840572282580492 0.45645510741997336 -1.4736167123904795 2.942078048690155 0.35583970980687207 1.0301218894905595 0.55848681644384968 0.50628500016242617 -0.39417999343875554 3.771777912576658 0.50256949116744232 2.0658118679570552 0.90955456677911484 2.8172333313821736 0.68811571517389147 0.51562439693023665 0.20709714449337235 -0.10838148124145637 0.46046641485229184 0.25970348211848621 4.4230547210401738 3.8234032295976093 0.10944713949775096 -0.61711986664011753 2.141642640320002 0.35062270336463808
leaf_weight=125565 51249 2106 24092 22538 4902 23796 918 4065 451 1143 46217 498 670 10605 505 13767 4896 16368 3604 578 4132 503 22323 4432 28017 8042 1592 759 14054 74 5620 215 51454 860 2354 220 11087 7740 105 12624 485 6130 449 3591 521 11382 148 3651 1867 3182 571 3286 4604 37144 17329 24687 201 121 741 30780 2049 323 305
leaf_count=125565 51249 2106 24092 22538 4902 23796 918 4065 451 1143 46217 498 670 10605 505 13767 4896 16368 3604 578 4132 503 22323 4432 28017 8042 1592 759 14054 74 5620 215 51454 860 2354 220 11087 7740 105 12624 485 6130 449 3591 521 11382 148 3651 1867 3182 571 3286 4604 37144 17329 24687 201 121 741 30780 2049 323 305
internal_value=0.000229345 -0.319433 -0.68556 0.0980145 -0.917037 0.266314 0.474629 1.16088 1.92476 0.0457242 0.143046 1.39367 0.115986 0.215311 1.19075 0.115073 0.306471 0.184787 0.281495 1.96845 -0.0224414 1.09343 0.0448819 -0.732548 0.194803 0.503167 0.756072 0.953216 0.235965 0.30225 0.057061 2.74263 -0.154565 -0.537836 0.693922 1.84324 -0.67653 -0.873981 0.702944 -1.35182 0.499611 0.679771 2.02295 0.118335 1.75711 -0.565435 2.39585 0.0895445 1.6976 0.545049 2.1144 0.316882 0.274719 0.0189822 0.106737 0.479358 1.65708 3.09745 3.41423 0.00616748 -0.981778 1.13214 1.38739
internal_weight=688287 161228 80414 527059 56322 124938 52553 10343 3924 402121 165637 3508 162129 85132 1753 72385 42210 58618 42250 1083 236484 1946 80814 39543 83379 19672 8344 6752 72774 53100 19674 1978 56446 4992 6419 1028 35111 12642 5149 16779 18454 10246 934 58491 1603 22469 253 54900 3010 9312 1022 11328 8208 180038 54473 25083 396 195 956 76997 4155 844 808
internal_count=688287 161228 80414 527059 56322 124938 52553 10343 3924 402121 165637 3508 162129 85132 1753 72385 42210 58618 42250 1083 236484 1946 80814 39543 83379 19672 8344 6752 72774 53100 19674 1978 56446 4992 6419 1028 35111 12642 5149 16779 18454 10246 934 58491 1603 22469 253 54900 3010 9312 1022 11328 8208 180038 54473 25083 396 195 956 76997 4155 844 808
is_linear=0
shrinkage=0.05


Tree=14
num_leaves=64
num_cat=0
split_feature=18 9 32 21 13 33 9 16 15 32 36 20 21 13 16 43 26 13 36 2 9 18 9 35 20 23 17 26 31 12 13 34 36 32 11 32 11 26 33 35 42 9 32 33 13 16 38 11 41 42 38 9 21 17 38 41 38 21 34 27 22 43 12
split_gain=7.75802e+06 7.70793e+06 3.6859e+06 1.68913e+06 1.6682e+06 1.22627e+06 1.7121e+06 1.29589e+06 1.25099e+06 872845 826955 1.65172e+06 1.0987e+06 567977 596529 538870 520808 408042 400841 764195 398989 378417 562509 380834 376162 363614 346425 340671 345926 337122 343621 316239 507326 312043 307415 301700 362458 298504 297193 291438 291421 289598 287325 413928 280943 517246 270833 443218 258311 255108 240009 234336 226776 255327 221075 251837 220288 243490 214396 213101 204586 204258 247505
threshold=4.3491124243246757 9.3112834802085374 206.50000000000003 14.40000000000005 201.50000000000003 276.50000000000006 1.1401754228513663 144.09999999999999 451.10000000000008 351.50000000000006 346.50000000000006 294.58333333333343 -76.466666666666654 309.50000000000006 200.40000000000001 367.50000000000006 7.5779093936862125 234.50000000000003 294.50000000000006 330.50000000000006 8.7635609192090147 0.90049686290062547 33.411076008978362 293.50000000000006 239.48333333333338 -1.0000000180025095e-35 3.8727876123202241 10.879310187867638 0.78656609248549303 289.50000000000006 58.500000000000007 298.50000000000006 299.50000000000006 534.50000000000011 583.50000000000011 178.50000000000003 172.50000000000003 4.7068814895022077 413.50000000000006 375.50000000000006 399.50000000000006 23.255106965863138 201.50000000000003 201.50000000000003 246.50000000000003 206.39999999999998 228.50000000000003 333.50000000000006 415.50000000000006 347.50000000000006 366.50000000000006 1.0000000180025095e-35 61.03333333333331 1.6216415341004262 297.50000000000006 210.50000000000003 315.50000000000006 43.600000000000016 581.50000000000011 12.500000000000002 -9.4333333333333069 237.50000000000003 353.50000000000006
decision_type=2 2 2 2 2 2 2 2 2 2 2 2 2 2 2 2 2 2 2 2 2 2 2 2 2 2 2 2 2 2 2 2 2 2 2 2 2 2 2 2 2 2 2 2 2 2 2 2 2 2 2 2 2 2 2 2 2 2 2 2 2 2 2
left_child=3 33 35 10 26 29 7 18 9 -9 20 12 39 14 21 -13 -11 -16 19 54 31 22 38 24 -24 34 41 -18 -29 30 -5 -1 -33 51 -17 -3 -37 -21 -8 -12 -20 60 43 -22 45 -10 -47 48 -48 -27 -42 -2 -26 -54 -7 -56 59 -58 -6 61 -4 -39 -63
right_child=1 2 4 5 58 6 13 8 44 16 11 15 -14 -15 17 25 27 -19 40 37 42 -23 23 -25 52 49 -28 28 -30 -31 -32 32 -34 -35 -36 36 -38 56 -40 -41 50 -43 -44 -45 -46 46 47 -49 -50 -51 -52 -53 53 -55 55 -57 57 -59 -60 -61 -62 62 -64
leaf_value=-0.050267808008445117 0.074600901799595498 -1.3308717325953796 -0.54317012030612954 -0.033871499250171098 -0.21062275441483852 0.3461821023702919 -0.026170924543668102 0.44432732932587582 0.59172402513118427 1.0714389910674096 1.3629445970382381 -0.027436255704391007 0.074743947219623283 -0.037786135679701974 1.578801125487014 0.046907371829004514 3.1567437289949285 0.43065420133355881 0.12029066277844279 0.59448064746943097 -0.21942371408161723 -0.17736588301754841 0.47983797369945852 0.32640252191702218 0.81347938740835868 -0.13054319608579831 -1.0675383645940393 0.99695590479950025 4.0935790610831715 -0.31174978594250857 0.19411614028055368 0.27103772609818616 -0.074085520034822952 0.34433611884906523 0.33660158291994524 -0.61827211826109396 -1.2964986610619067 1.1124334641476705 0.35894374716040978 2.5342411276979626 0.0011400681053131045 -0.66382051503990924 -0.17156806355099974 -1.6422882842917899 0.31965112254166833 -0.87289069621530302 4.2622840307010668 1.1825690621202722 1.0686378788065027 0.38205889290617712 0.55965996523061434 -0.14158779384047035 1.4301576956422588 3.0633346253194693 2.2316073437902464 0.66563842702804021 1.8783105706160663 4.4522965492669107 0.11114727505556155 0.88498628982896133 -0.027772215575072839 4.8362050893545154 1.9529859148127877
leaf_weight=129209 51890 14053 4416 30466 15374 6564 12054 820 2205 625 2162 60369 1801 23471 1378 49086 1358 1765 10892 576 1308 5231 2107 5736 883 2720 4187 418 115 5672 36123 22362 20328 8456 11258 4095 3796 215 8572 704 2310 26997 23860 839 3068 73 290 412 81 22547 11496 16527 900 326 335 1099 214 161 7805 547 3414 125 184
leaf_count=129209 51890 14053 4416 30466 15374 6564 12054 820 2205 625 2162 60369 1801 23471 1378 49086 1358 1765 10892 576 1308 5231 2107 5736 883 2720 4187 418 115 5672 36123 22362 20328 8456 11258 4095 3796 215 8572 704 2310 26997 23860 839 3068 73 290 412 81 22547 11496 16527 900 326 335 1099 214 161 7805 547 3414 125 184
internal_value=-0.000346673 -0.304132 -0.634811 0.0923926 -0.438233 0.217301 0.325086 0.563257 1.08187 1.86101 0.0282931 0.116566 1.04251 0.156509 0.273584 0.086963 2.32273 0.934042 0.42187 0.688603 -0.0389004 0.215615 0.282842 0.591575 0.952351 0.167632 -0.637833 2.7363 1.66508 0.0582871 0.0898065 -0.0112864 0.106698 0.0577931 0.100954 -1.19195 -0.944536 1.55704 0.13388 1.65066 0.313657 -0.586172 -0.221421 -0.775448 0.657784 0.996691 2.03986 2.31142 3.56502 0.326877 0.466209 0.0223778 1.42442 1.86443 0.46905 1.03147 1.94047 2.98341 -0.102274 1.57529 -0.318449 2.29589 3.11934
internal_weight=688430 161010 84137 527420 62193 178867 106606 44183 9465 3336 348553 150647 4667 62423 38952 145980 2516 3143 34718 10020 197906 35809 30578 9952 4216 85611 39014 1891 533 72261 66589 171899 42690 76873 60344 21944 7891 2022 20626 2866 24698 34827 26007 2147 6129 3061 856 783 371 25267 13806 68417 2109 1226 7998 1434 1446 375 23179 1071 7830 524 309
internal_count=688430 161010 84137 527420 62193 178867 106606 44183 9465 3336 348553 150647 4667 62423 38952 145980 2516 3143 34718 10020 197906 35809 30578 9952 4216 85611 39014 1891 533 72261 66589 171899 42690 76873 60344 21944 7891 2022 20626 2866 24698 34827 26007 2147 6129 3061 856 783 371 25267 13806 68417 2109 1226 7998 1434 1446 375 23179 1071 7830 524 309
is_linear=0
shrinkage=0.05


Tree=15
num_leaves=64
num_cat=0
split_feature=18 9 32 21 10 33 9 16 15 23 36 0 36 0 16 43 18 21 2 22 35 32 32 38 17 35 16 36 2 23 9 10 24 22 18 26 17 26 18 21 17 31 40 33 33 23 3 15 30 12 26 2 38 9 35 8 9 38 23 37 26 38 42
split_gain=7.02457e+06 7.10422e+06 3.22743e+06 1.55185e+06 1.35601e+06 1.16661e+06 1.54083e+06 1.41592e+06 1.08001e+06 893240 704828 1.85182e+06 660361 497785 494793 454865 452886 462738 394253 364873 359420 419630 348447 320806 316792 316553 311710 294373 692947 288369 275974 338241 1.23371e+06 614201 357642 264108 259926 254328 253841 607315 251741 248194 247893 246378 240162 238578 233369 232757 232548 232309 229871 222193 232033 215972 211201 659813 475924 208269 267340 207323 192088 191291 280594
threshold=4.3491124243246757 9.654014710104823 210.50000000000003 11.766666666666653 50.746803793732504 276.50000000000006 1.6431676815661573 144.09999999999999 451.10000000000008 126.09083184593537 346.50000000000006 196.50000000000003 465.50000000000006 284.50000000000006 385.19999999999999 583.50000000000011 0.90049686290062547 54.43333333333333 362.16666666666669 -1.0000000180025095e-35 289.50000000000006 324.50000000000006 178.50000000000003 142.50000000000003 3.8729833462072061 534.50000000000011 57.099999999999973 286.50000000000006 330.50000000000006 221.58086506415765 0.54772254857932767 94.999072311062505 50363.814817309998 -131.54999999999998 -1.5812905714625203 35.653587961181863 -1.6720819353932128 4.7068814895022077 4.3491124260386966 -25.166666666666654 1.0023029346874617 0.78656609248549303 553.50000000000011 165.50000000000003 354.50000000000006 0.48994392473028375 262.7000000000001 548.30000000000007 -0.37940952255126059 299.50000000000006 27.561311534912349 195.16666666666671 160.50000000000003 0.44721363730764563 410.50000000000006 351.35000000000008 87.206651122459405 304.50000000000006 28.996614544905942 206.50000000000003 37.297240226161655 247.50000000000003 408.50000000000006
decision_type=2 2 2 2 2 2 2 2 2 2 2 2 2 2 2 2 2 2 2 2 2 2 2 2 2 2 2 2 2 2 2 2 2 2 2 2 2 2 2 2 2 2 2 2 2 2 2 2 2 2 2 2 2 2 2 2 2 2 2 2 2 2 2
left_child=3 25 22 10 24 13 7 27 9 18 19 12 43 26 16 30 17 50 -9 36 21 49 -3 -11 38 53 -5 28 57 -10 31 45 33 -33 -35 47 -1 -30 39 -4 -23 -20 -17 -12 -22 -13 -40 -29 -42 -19 -8 -24 -53 -2 -32 56 -56 -7 -59 -50 -47 -39 -63
right_child=1 2 4 5 -6 6 14 8 29 23 11 15 -14 -15 -16 42 -18 20 41 -21 44 40 51 -25 -26 -27 -28 35 37 -31 54 32 -34 34 -36 -37 -38 61 46 -41 48 -43 -44 -45 -46 60 -48 -49 59 -51 -52 52 -54 -55 55 -57 -58 58 -60 -61 -62 62 -64
leaf_value=-0.61892593832398324 0.066417265690180916 -1.2649880568799581 -1.2322253197153208 -0.032118900511810704 -0.11895589479716334 0.31787725327758959 0.072155178050079552 0.22561838369506476 0.91889702472477675 -0.98336298321855475 0.93589069161491334 -0.025272792480933601 -0.47151343550525343 -0.44370076387651292 -0.053623100891143631 0.050661685339161246 -0.14403681963291134 0.93996542869423882 1.3229439281702957 0.017021372074513933 -0.35214022406263989 0.68657131492170631 -0.63862548928470408 2.8074322931161197 -1.0498073095073301 0.32699051541182622 0.17585715450697564 0.1360207228958816 0.57197614245056383 0.21089148201951474 -0.23814667782374199 0.18465024777774003 0.19297757022383144 3.6950287236466277 0.75023201963666719 0.60023144812731011 -0.10696115885595579 1.0787152280095438 -0.65256715591890946 -0.47674599137008711 1.0362965618064901 3.2908910235332458 0.34015130152406964 1.8715849863810341 0.42969246112099518 0.087708457586722688 -0.31922307111996612 0.52008045082436227 1.2755312899232543 0.056160692767392377 0.50363926655194347 -0.20289130091083735 -1.2596589523934578 -0.14458025127334975 -0.12342004076068856 -0.024190217700512315 3.0483010243721274 0.61127087274001379 2.3015368465126538 2.9635333961295518 0.4479314566592465 3.0033683088497822 0.94482416773395705
leaf_weight=2564 52589 13950 4122 31784 23595 6987 16351 829 4005 58 1126 35393 483 4725 21155 11241 6421 1406 920 112757 1097 809 4911 1479 3599 9416 41592 17466 494 2244 12393 271 8878 471 132 5832 74951 438 8868 7501 577 194 21614 1875 9389 11626 12871 5096 284 1578 3805 597 3998 15763 194 35726 303 1004 305 506 5429 549 237
leaf_count=2564 52589 13950 4122 31784 23595 6987 16351 829 4005 58 1126 35393 483 4725 21155 11241 6421 1406 920 112757 1097 809 4911 1479 3599 9416 41592 17466 494 2244 12393 271 8878 471 132 5832 74951 438 8868 7501 577 194 21614 1875 9389 11626 12871 5096 284 1578 3805 597 3998 15763 194 35726 303 1004 305 506 5429 549 237
internal_value=-0.000983815 -0.289179 -0.607962 0.08748 -0.415087 0.201932 0.305723 0.518983 1.05778 1.76372 0.023164 0.105336 1.24434 0.0537368 0.143747 0.0777148 0.242635 0.311983 1.05125 -0.0403869 0.516009 0.857634 -1.10591 2.66438 -0.60413 0.0551993 0.085769 0.382501 0.615588 0.664654 0.0292723 0.0990309 0.36943 2.16182 3.0504 0.300296 -0.123896 1.52957 -0.556051 -0.74467 1.38565 1.66566 0.241105 1.5205 0.347901 0.0487538 -0.455204 0.222767 1.79937 0.472591 0.15361 -0.872452 -1.12236 0.0177581 -0.0599778 0.000979267 1.81024 0.426313 1.00511 2.35671 0.202376 1.91605 2.38266
internal_weight=688823 161780 84012 527043 60556 189616 111515 48137 9729 3480 337427 147155 3484 78101 63378 143671 42223 35802 1943 190272 15646 5160 23456 1537 36961 77768 73376 38408 10014 6249 110816 62200 9752 874 603 28394 77515 1718 33362 11623 2176 1114 32855 3001 10486 52448 21739 22562 1367 2984 20156 9506 4595 68352 48616 36223 497 8296 1309 790 17055 1224 786
internal_count=688823 161780 84012 527043 60556 189616 111515 48137 9729 3480 337427 147155 3484 78101 63378 143671 42223 35802 1943 190272 15646 5160 23456 1537 36961 77768 73376 38408 10014 6249 110816 62200 9752 874 603 28394 77515 1718 33362 11623 2176 1114 32855 3001 10486 52448 21739 22562 1367 2984 20156 9506 4595 68352 48616 36223 497 8296 1309 790 17055 1224 786
is_linear=0
shrinkage=0.05


Tree=16
num_leaves=64
num_cat=0
split_feature=18 9 13 21 32 33 9 10 15 23 36 0 36 13 9 0 3 21 18 9 8 17 13 36 0 0 12 2 38 9 13 35 13 12 13 12 38 9 30 9 12 17 33 33 33 42 13 30 13 17 33 11 21 12 38 14 0 30 38 27 1 15 27
split_gain=6.34586e+06 6.33376e+06 3.05241e+06 1.41269e+06 1.39174e+06 1.07842e+06 1.33166e+06 1.13401e+06 1.02537e+06 826862 632679 1.69717e+06 611421 458470 444792 415899 413401 391910 497412 343925 1.22124e+06 343328 338064 426765 635658 335799 484708 331117 314976 309291 293360 288377 282582 461246 281760 286202 395655 267898 261089 258842 252482 244672 244609 244137 364224 233409 233036 243016 228419 228128 298731 223122 221440 221396 256800 260490 270192 222129 213963 212810 236698 211070 208058
threshold=4.3491124243246757 8.396427814126028 133.50000000000003 11.766666666666653 191.50000000000003 270.50000000000006 1.1401754228513663 66.324203708091943 451.10000000000008 117.48181191321277 346.50000000000006 196.50000000000003 530.50000000000011 309.50000000000006 15.336231610803038 289.50000000000006 583.10000000000014 55.600000000000016 0.90049686290062547 87.206651122459405 385.81666666666672 3.8496410712518379 295.50000000000006 599.50000000000011 477.50000000000006 298.50000000000006 299.50000000000006 348.16666666666669 142.50000000000003 24.149534157688105 57.500000000000007 404.50000000000006 207.50000000000003 527.50000000000011 76.500000000000014 387.50000000000006 292.50000000000006 20.571825393987393 -0.91597561503675329 90.127687184687275 191.50000000000003 0.2702029018025085 190.50000000000003 351.50000000000006 196.50000000000003 416.50000000000006 159.50000000000003 -0.60355339059327362 234.50000000000003 -1.6720819322541101 299.50000000000006 165.50000000000003 26.899999999999981 815.50000000000011 228.50000000000003 299.10000000000008 518.50000000000011 -0.78656609248549303 369.50000000000006 7.5000000000000009 582.99770685275314 553.10000000000014 6.5000000000000009
decision_type=2 2 2 2 2 2 2 2 2 2 2 2 2 2 2 2 2 2 2 2 2 2 2 2 2 2 2 2 2 2 2 2 2 2 2 2 2 2 2 2 2 2 2 2 2 2 2 2 2 2 2 2 2 2 2 2 2 2 2 2 2 2 2
left_child=3 31 4 10 40 15 7 34 9 27 25 12 43 17 16 30 59 58 39 -16 32 37 23 -22 -25 29 -27 -9 -11 -1 -5 -2 -21 -34 -7 36 41 -6 -29 -19 -3 -36 -4 44 51 -18 47 -30 -41 50 -31 -12 -38 54 -10 57 -57 -56 -8 60 -13 -37 -33
right_child=1 2 42 5 21 6 13 8 53 28 11 14 -14 -15 19 -17 45 18 -20 20 22 -23 -24 24 -26 26 -28 38 46 49 -32 62 33 -35 35 61 52 -39 -40 48 -42 -43 -44 -45 -46 -47 -48 -49 -50 -51 -52 -53 -54 -55 55 56 -58 -59 -60 -61 -62 -63 -64
leaf_value=-0.053075353804814762 -0.0051161503352213306 -0.82947830991857008 -0.80114992855548461 -0.044351617947656533 -0.28470209836812838 0.2339018288302433 -0.026634743994639089 0.20687119710566662 -0.21572888979536906 -0.95623143519928222 0.89889577737634563 0.36828787866024265 -0.6357377040483716 -0.035753217752752753 -0.21363156481717535 -0.44844785795126046 -0.040108745251365999 0.47397728969890579 -0.18697511337951805 -0.11070624094488275 0.03084107649156495 -1.01091108907711 -0.04325129933101985 3.7467013515216316 0.55945259893296995 0.26751357330932379 -0.053972801758476074 -0.05848846152357387 1.1224679039812637 -1.5320970927015152 0.16239075680640436 0.60499026721164328 3.4705431296272451 0.33848652724040357 0.36865206314540211 0.15902961599786752 0.5799921772822374 -0.63479520341635265 1.8538021337305164 1.8343508142611356 -1.2788082489535226 1.1330016867026262 -0.11236731375497562 2.2799450132716306 -0.89257250929159637 0.394462852661845 2.1768022135635308 4.0585872427151211 0.47428014943356156 -0.24145602366234922 0.074449893542736054 1.8884634359991848 1.6430333906046588 0.17043846132860924 0.56588418400176221 -0.0014039177234019245 1.0256157023478736 2.559967315764125 0.26862826898280429 0.03625884252328352 -0.06499545187231924 0.65058371142060767 0.14968757148942832
leaf_weight=128873 54324 4172 1354 30348 6763 20958 13164 904 566 67 1198 11000 409 23705 19591 4053 3703 13332 2820 117 1020 4985 23158 236 464 19673 29019 221 87 801 39481 2889 415 164 5449 6818 736 28458 928 691 12474 1296 26844 653 193 18660 1211 371 558 11474 453 1086 1465 2266 214 881 2345 402 11492 61122 4418 3213 19083
